{"learner":{"attributes":{},"feature_names":[],"feature_types":[],"gradient_booster":{"model":{"cats":{"enc":[],"feature_segments":[],"sorted_idx":[]},"gbtree_model_param":{"num_parallel_tree":"1","num_trees":"800"},"iteration_indptr":[0,8,16,24,32,40,48,56,64,72,80,88,96,104,112,120,128,136,144,152,160,168,176,184,192,200,208,216,224,232,240,248,256,264,272,280,288,296,304,312,320,328,336,344,352,360,368,376,384,392,400,408,416,424,432,440,448,456,464,472,480,488,496,504,512,520,528,536,544,552,560,568,576,584,592,600,608,616,624,632,640,648,656,664,672,680,688,696,704,712,720,728,736,744,752,760,768,776,784,792,800],"tree_info":[0,1,2,3,4,5,6,7,0,1,2,3,4,5,6,7,0,1,2,3,4,5,6,7,0,1,2,3,4,5,6,7,0,1,2,3,4,5,6,7,0,1,2,3,4,5,6,7,0,1,2,3,4,5,6,7,0,1,2,3,4,5,6,7,0,1,2,3,4,5,6,7,0,1,2,3,4,5,6,7,0,1,2,3,4,5,6,7,0,1,2,3,4,5,6,7,0,1,2,3,4,5,6,7,0,1,2,3,4,5,6,7,0,1,2,3,4,5,6,7,0,1,2,3,4,5,6,7,0,1,2,3,4,5,6,7,0,1,2,3,4,5,6,7,0,1,2,3,4,5,6,7,0,1,2,3,4,5,6,7,0,1,2,3,4,5,6,7,0,1,2,3,4,5,6,7,0,1,2,3,4,5,6,7,0,1,2,3,4,5,6,7,0,1,2,3,4,5,6,7,0,1,2,3,4,5,6,7,0,1,2,3,4,5,6,7,0,1,2,3,4,5,6,7,0,1,2,3,4,5,6,7,0,1,2,3,4,5,6,7,0,1,2,3,4,5,6,7,0,1,2,3,4,5,6,7,0,1,2,3,4,5,6,7,0,1,2,3,4,5,6,7,0,1,2,3,4,5,6,7,0,1,2,3,4,5,6,7,0,1,2,3,4,5,6,7,0,1,2,3,4,5,6,7,0,1,2,3,4,5,6,7,0,1,2,3,4,5,6,7,0,1,2,3,4,5,6,7,0,1,2,3,4,5,6,7,0,1,2,3,4,5,6,7,0,1,2,3,4,5,6,7,0,1,2,3,4,5,6,7,0,1,2,3,4,5,6,7,0,1,2,3,4,5,6,7,0,1,2,3,4,5,6,7,0,1,2,3,4,5,6,7,0,1,2,3,4,5,6,7,0,1,2,3,4,5,6,7,0,1,2,3,4,5,6,7,0,1,2,3,4,5,6,7,0,1,2,3,4,5,6,7,0,1,2,3,4,5,6,7,0,1,2,3,4,5,6,7,0,1,2,3,4,5,6,7,0,1,2,3,4,5,6,7,0,1,2,3,4,5,6,7,0,1,2,3,4,5,6,7,0,1,2,3,4,5,6,7,0,1,2,3,4,5,6,7,0,1,2,3,4,5,6,7,0,1,2,3,4,5,6,7,0,1,2,3,4,5,6,7,0,1,2,3,4,5,6,7,0,1,2,3,4,5,6,7,0,1,2,3,4,5,6,7,0,1,2,3,4,5,6,7,0,1,2,3,4,5,6,7,0,1,2,3,4,5,6,7,0,1,2,3,4,5,6,7,0,1,2,3,4,5,6,7,0,1,2,3,4,5,6,7,0,1,2,3,4,5,6,7,0,1,2,3,4,5,6,7,0,1,2,3,4,5,6,7,0,1,2,3,4,5,6,7,0,1,2,3,4,5,6,7,0,1,2,3,4,5,6,7,0,1,2,3,4,5,6,7,0,1,2,3,4,5,6,7,0,1,2,3,4,5,6,7,0,1,2,3,4,5,6,7,0,1,2,3,4,5,6,7,0,1,2,3,4,5,6,7,0,1,2,3,4,5,6,7,0,1,2,3,4,5,6,7,0,1,2,3,4,5,6,7,0,1,2,3,4,5,6,7,0,1,2,3,4,5,6,7,0,1,2,3,4,5,6,7,0,1,2,3,4,5,6,7,0,1,2,3,4,5,6,7,0,1,2,3,4,5,6,7,0,1,2,3,4,5,6,7,0,1,2,3,4,5,6,7,0,1,2,3,4,5,6,7,0,1,2,3,4,5,6,7,0,1,2,3,4,5,6,7],"trees":[{"base_weights":[1.7148573E-6,2.5176091E0,-1.8577074E-1,2.5742438E0,-1.8458131E-1,2.5838823E0,-1.7871056E-1,2.585793E0,-1.5472068E-1,2.1895178E-1,2.5880632E0,-1.5891819E-1,5.334919E-1,2.4138045E0,7.77988E-1,7.7383506E-1,7.678608E-1,-1.7287953E-1,7.1122026E-1],"categories":[],"categories_nodes":[],"categories_segments":[],"categories_sizes":[],"default_left":[0,0,0,0,0,0,0,0,0,0,0,0,0,0,0,0,0,0,0],"id":0,"left_children":[1,3,-1,5,-1,7,-1,9,-1,11,13,-1,-1,15,-1,-1,17,-1,-1],"loss_changes":[6.733524E4,1.5144062E3,0E0,2.5742578E2,0E0,5.0785156E1,0E0,4.428125E1,0E0,1.1553171E1,1.3320312E0,0E0,0E0,6.818787E1,0E0,0E0,5.5133514E1,0E0,0E0],"parents":[2147483647,0,0,1,1,3,3,5,5,7,7,9,9,10,10,13,13,16,16],"right_children":[2,4,-1,6,-1,8,-1,10,-1,12,14,-1,-1,16,-1,-1,18,-1,-1],"split_conditions":[-4.031735E-1,-2.0590138E-1,-1.8577074E-1,-1.15448445E-1,-1.8458131E-1,-6.73617E-2,-1.7871056E-1,2.4011475E-3,-1.5472068E-1,-6.8032816E-2,-1.7342381E-1,-1.5891819E-1,5.334919E-1,-3.9553767E-1,7.77988E-1,7.7383506E-1,-3.9280125E-1,-1.7287953E-1,7.1122026E-1],"split_indices":[0,15,0,14,0,37,0,29,0,37,8,0,0,19,0,0,19,0,0],"split_type":[0,0,0,0,0,0,0,0,0,0,0,0,0,0,0,0,0,0,0],"sum_hessian":[4.3189395E4,8.525315E3,3.466408E4,8.37411E3,1.512044E2,8.34891E3,2.5200735E1,8.343933E3,4.977923E0,8.089125E0,8.335843E3,5.9112835E0,2.1778412E0,2.5636304E2,8.07948E3,2.3240677E2,2.3956255E1,1.3378168E1,1.0578086E1],"tree_param":{"num_deleted":"0","num_feature":"41","num_nodes":"19","size_leaf_vector":"1"}},{"base_weights":[9.697521E-7,2.4892404E0,-5.3044856E-1,4.085207E-1,3.1016424E0,-5.588238E-1,7.935183E-1,1.019714E0,-1.77645E-1,-1.7538753E-1,3.1527395E0,-5.9180313E-1,-1.6686848E-1,9.5054036E-1,-1.7752212E-1,1.8443972E0,-3.5804158E-1,3.1579878E0,-1.5539964E-1,-1.7784226E-1,-5.7029337E-1,-5.486005E-1,1.865327E0,-1.7690381E-1,2.850239E0,-4.7356963E-1,1.4224464E0,9.479392E-1,1.0699927E0,1.073262E0,-1.7781937E-1,-5.748028E-1,2.418283E-1,2.9209726E0,-3.2813407E-2,9.4343525E-1,1.58422E0,2.5670642E-1,-5.700968E-1,8.7587905E-1,-1.6017826E-1,-1.15612E-1,5.5738866E-1,2.424134E0,-1.5746498E-1,-5.794352E-1,-1.6600446E-1,-1.7395939E-1,2.0980983E0,3.0443096E0,-1.5807192E-1,-1.7620409E-1,1.7657908E0,4.395485E-3,2.662656E0,1.3986415E0,-1.7022142E-1,-1.7728166E-1,-3.333235E-1,-9.1554135E-2,8.4119105E-1,-3.7615165E-1,-5.8948445E-1,6.7251015E-1,-1.6909745E-1,-1.4710973E-1,8.899946E-1,-1.5287143E-1,9.4346803E-1,-1.6107258E-1,2.8042974E0,1.416739E0,-2.8651112E-1,8.265266E-1,4.0072438E-1,-1.324921E-1,5.4904765E-1,-1.6994414E-1,9.846378E-1,-1.7575222E-1,1.2208568E0,-5.1512986E-1,-1.778583E-1,8.937097E-1,-9.1554135E-2,6.54363E-1,-1.0923345E-1,-1.6974801E-1,5.7478637E-1,5.859347E-1,-1.0923345E-1,7.9637223E-1,-1.4710973E-1,-1.7580204E-1,4.561881E-1,4.0220293E-1,-1.324921E-1],"categories":[],"categories_nodes":[],"categories_segments":[],"categories_sizes":[],"default_left":[0,0,0,0,0,0,0,0,0,0,0,0,0,0,0,0,0,0,0,0,0,0,0,0,0,0,0,0,0,0,0,0,0,0,0,0,0,0,0,0,0,0,0,0,0,0,0,0,0,0,0,0,0,0,0,0,0,0,0,0,0,0,0,0,0,0,0,0,0,0,0,0,0,0,0,0,0,0,0,0,0,0,0,0,0,0,0,0,0,0,0,0,0,0,0,0,0],"id":1,"left_children":[1,3,5,7,9,11,13,15,-1,-1,17,19,21,-1,-1,23,25,27,-1,-1,29,31,33,-1,35,37,39,-1,41,43,-1,45,47,49,51,-1,53,55,57,-1,-1,-1,-1,59,-1,61,63,-1,65,67,-1,-1,69,71,73,75,-1,-1,77,-1,-1,79,81,-1,-1,-1,-1,-1,-1,-1,83,85,87,-1,-1,-1,-1,-1,89,-1,91,93,-1,-1,-1,-1,-1,-1,95,-1,-1,-1,-1,-1,-1,-1,-1],"loss_changes":[4.8555492E4,8.229867E3,1.13925E3,8.9968787E2,9.418672E2,3.8353027E2,2.0957632E3,1.0380154E3,0E0,0E0,9.646875E1,2.5195312E-1,1.7888983E3,0E0,0E0,1.4003788E3,7.116571E1,1.5191406E1,0E0,0E0,4.6642914E1,4.0339355E1,7.308386E2,0E0,1.458252E2,2.2884682E1,6.3451714E1,0E0,7.3305507E0,3.83144E1,0E0,3.4620972E0,9.7283226E1,1.01267334E2,1.3201663E2,0E0,1.3346951E2,3.688274E1,1.2105484E0,0E0,0E0,0E0,0E0,1.0679703E1,0E0,3.573059E0,2.276326E1,0E0,4.538897E1,8.25376E1,0E0,0E0,7.610856E1,1.3876386E1,2.0304565E0,1.3802551E1,0E0,0E0,8.353557E0,0E0,0E0,3.0942997E1,1.385498E-1,0E0,0E0,0E0,0E0,0E0,0E0,0E0,1.2678253E1,8.646677E0,7.0656576E0,0E0,0E0,0E0,0E0,0E0,6.169385E0,0E0,2.7800234E1,1.3074553E1,0E0,0E0,0E0,0E0,0E0,0E0,6.31947E0,0E0,0E0,0E0,0E0,0E0,0E0,0E0,0E0],"parents":[2147483647,0,0,1,1,2,2,3,3,4,4,5,5,6,6,7,7,10,10,11,11,12,12,15,15,16,16,17,17,20,20,21,21,22,22,24,24,25,25,26,26,28,28,29,29,31,31,32,32,33,33,34,34,36,36,37,37,38,38,43,43,45,45,46,46,48,48,49,49,52,52,53,53,54,54,55,55,58,58,61,61,62,62,70,70,71,71,72,72,78,78,80,80,81,81,88,88],"right_children":[2,4,6,8,10,12,14,16,-1,-1,18,20,22,-1,-1,24,26,28,-1,-1,30,32,34,-1,36,38,40,-1,42,44,-1,46,48,50,52,-1,54,56,58,-1,-1,-1,-1,60,-1,62,64,-1,66,68,-1,-1,70,72,74,76,-1,-1,78,-1,-1,80,82,-1,-1,-1,-1,-1,-1,-1,84,86,88,-1,-1,-1,-1,-1,90,-1,92,94,-1,-1,-1,-1,-1,-1,96,-1,-1,-1,-1,-1,-1,-1,-1],"split_conditions":[-4.1939816E-1,-1.5947726E-1,2.0969053E-1,-4.005659E-1,-1.8693328E-1,1.7138098E-1,7.896949E-1,-4.9682015E-1,-1.77645E-1,-1.7538753E-1,-1.8584047E-1,1.8708952E-1,-6.786573E-2,9.5054036E-1,-1.7752212E-1,-4.012178E-1,-3.1284177E-1,-3.17069E-1,-1.5539964E-1,-1.7784226E-1,-2.0432623E-1,-1.4670265E-1,-9.147026E-2,-1.7690381E-1,-1.8123522E-1,-4.968093E-1,-4.0686753E-1,9.479392E-1,2.0517914E-2,-3.149277E-2,-1.7781937E-1,-6.787407E-2,-6.803132E-2,-2.0432623E-1,-8.4108815E-2,9.4343525E-1,-3.3613303E-1,1.3422858E-3,-1.8693328E-1,8.7587905E-1,-1.6017826E-1,-1.15612E-1,5.5738866E-1,-1.8037644E-1,-1.5746498E-1,-3.356291E-1,1.134338E-1,-1.7395939E-1,-2.1929596E-1,-2.0860445E-1,-1.5807192E-1,-1.7620409E-1,-2.2044912E-1,-4.7912204E-1,-3.3611515E-1,-4.031735E-1,-1.7022142E-1,-1.7728166E-1,-3.9280125E-1,-9.1554135E-2,8.4119105E-1,-3.4672338E-1,-3.6920437E-1,6.7251015E-1,-1.6909745E-1,-1.4710973E-1,8.899946E-1,-1.5287143E-1,9.4346803E-1,-1.6107258E-1,2.1841052E-1,5.1614485E0,-1.0952458E-1,8.265266E-1,4.0072438E-1,-1.324921E-1,5.4904765E-1,-1.6994414E-1,-1.8584047E-1,-1.7575222E-1,-4.005659E-1,-2.5589332E-1,-1.778583E-1,8.937097E-1,-9.1554135E-2,6.54363E-1,-1.0923345E-1,-1.6974801E-1,-4.020295E-1,5.859347E-1,-1.0923345E-1,7.9637223E-1,-1.4710973E-1,-1.7580204E-1,4.561881E-1,4.0220293E-1,-1.324921E-1],"split_indices":[7,19,3,0,10,8,8,36,0,0,10,24,37,0,0,0,19,36,0,0,23,13,20,0,14,36,36,0,19,5,0,37,37,23,6,0,39,16,10,0,0,0,0,10,0,39,9,0,27,23,0,0,28,35,39,0,0,0,19,0,0,36,38,0,0,0,0,0,0,0,9,28,27,0,0,0,0,0,10,0,0,40,0,0,0,0,0,0,23,0,0,0,0,0,0,0,0],"split_type":[0,0,0,0,0,0,0,0,0,0,0,0,0,0,0,0,0,0,0,0,0,0,0,0,0,0,0,0,0,0,0,0,0,0,0,0,0,0,0,0,0,0,0,0,0,0,0,0,0,0,0,0,0,0,0,0,0,0,0,0,0,0,0,0,0,0,0,0,0,0,0,0,0,0,0,0,0,0,0,0,0,0,0,0,0,0,0,0,0,0,0,0,0,0,0,0,0],"sum_hessian":[3.6770883E4,6.4586577E3,3.0312225E4,1.4690447E3,4.9896133E3,2.9676768E4,6.354559E2,9.119944E2,5.570503E2,6.8075096E1,4.921538E3,2.7373074E4,2.303693E3,2.3362737E2,4.018285E2,5.702945E2,3.416999E2,4.914651E3,6.8869743E0,2.6126533E4,1.2465424E3,1.9400078E3,3.6368524E2,1.668767E2,4.034178E2,3.2156873E2,2.0131157E1,4.9098833E3,4.767905E0,1.6157902E1,1.2303845E3,1.878025E3,6.1982773E1,2.3336249E2,1.3032275E2,3.2607175E2,7.734602E1,3.7348595E1,2.8422015E2,1.1125113E1,9.006043E0,1.8541855E0,2.9137201E0,8.476276E0,7.6816254E0,1.8565695E3,2.1455574E1,4.3440918E1,1.8541855E1,2.2541597E2,7.9465094E0,1.00126015E2,3.0196735E1,3.1786037E1,4.5559986E1,1.5363251E1,2.1985342E1,2.5985086E2,2.4369295E1,1.0595345E0,7.416742E0,8.9265785E1,1.7673036E3,2.3839526E0,1.907162E1,4.767905E0,1.3773949E1,6.092324E0,2.1932365E2,9.53581E0,2.0660923E1,4.767905E0,2.7018131E1,4.158673E1,3.9732547E0,2.9137201E0,1.2449531E1,2.1190691E1,3.1786036E0,7.946509E1,9.800694E0,8.343835E1,1.6838652E3,1.9601389E1,1.0595345E0,3.1786036E0,1.5893018E0,2.0660923E1,6.3572073E0,1.5893018E0,1.5893018E0,5.032789E0,4.767905E0,8.1319275E1,2.119069E0,3.4434872E0,2.9137201E0],"tree_param":{"num_deleted":"0","num_feature":"41","num_nodes":"97","size_leaf_vector":"1"}},{"base_weights":[9.3137743E-7,-5.0006545E-1,1.9177606E0,1.8178397E0,-1.780169E-1,7.840828E-1,3.0833626E0,-1.7755905E-1,3.0504901E0,2.7204754E0,-5.8431476E-1,3.1730285E0,-1.7605385E-1,3.0975966E0,-1.6114849E-1,2.908867E0,9.619244E-2,-1.7794308E-1,-1.2509714E-1,9.522358E-1,-9.164927E-2,-1.3800448E-1,9.3447244E-1,-1.717377E-1,2.9741848E0,1.1029139E0,-1.7529261E-1,-1.7341937E-1,8.017793E-1,1.7451926E0,3.062691E0,-1.6620171E-1,1.9001596E0,9.209766E-1,-5.3618025E-2,1.9885262E0,3.0807586E0,-1.1570941E-1,2.0651877E0,-1.7037703E-1,5.0776273E-1,-1.3258547E-1,2.3235667E0,2.7255094E0,9.298788E-1,6.591307E-1,-1.0149834E-1,1.4861314E0,-1.6195647E-1,7.792756E-1,1.449826E0,8.4924763E-1,1.2488317E0,-1.2928563E-1,6.36217E-1,-1.2928563E-1,7.615215E-1,6.2346447E-1,-1.2100381E-1],"categories":[],"categories_nodes":[],"categories_segments":[],"categories_sizes":[],"default_left":[0,0,0,0,0,0,0,0,0,0,0,0,0,0,0,0,0,0,0,0,0,0,0,0,0,0,0,0,0,0,0,0,0,0,0,0,0,0,0,0,0,0,0,0,0,0,0,0,0,0,0,0,0,0,0,0,0,0,0],"id":2,"left_children":[1,3,5,7,-1,9,11,-1,13,15,17,19,-1,21,-1,23,25,-1,27,-1,-1,-1,-1,-1,29,31,-1,-1,-1,33,35,-1,37,-1,39,41,43,-1,45,-1,47,-1,49,51,-1,-1,-1,53,-1,-1,55,-1,57,-1,-1,-1,-1,-1,-1],"loss_changes":[3.5316734E4,6.3196323E3,1.0062295E4,3.3605854E3,0E0,1.0236316E4,1.2376289E3,0E0,1.2812158E2,7.905049E2,9.104858E0,1.4878906E1,0E0,4.6927734E1,0E0,3.4104883E2,7.4748055E1,0E0,5.7271046E1,0E0,0E0,0E0,0E0,0E0,1.5401074E2,5.914052E1,0E0,0E0,0E0,2.4022421E2,2.0371094E1,0E0,1.2081131E1,0E0,1.2907875E1,2.1714195E1,5.253906E-1,0E0,9.639191E0,0E0,2.2762697E1,0E0,1.6177521E0,8.253906E0,0E0,0E0,0E0,1.4716452E1,0E0,0E0,1.671893E1,0E0,1.0205415E1,0E0,0E0,0E0,0E0,0E0,0E0],"parents":[2147483647,0,0,1,1,2,2,3,3,5,5,6,6,8,8,9,9,10,10,11,11,13,13,15,15,16,16,18,18,24,24,25,25,29,29,30,30,32,32,34,34,35,35,36,36,38,38,40,40,42,42,43,43,47,47,50,50,52,52],"right_children":[2,4,6,8,-1,10,12,-1,14,16,18,20,-1,22,-1,24,26,-1,28,-1,-1,-1,-1,-1,30,32,-1,-1,-1,34,36,-1,38,-1,40,42,44,-1,46,-1,48,-1,50,52,-1,-1,-1,54,-1,-1,56,-1,58,-1,-1,-1,-1,-1,-1],"split_conditions":[1.7825331E-1,1.3224292E-3,-3.6784816E-1,-2.9234967E-1,-1.780169E-1,1.3224292E-3,1.9657908E-1,-1.7755905E-1,-3.035629E-2,3.4971015E0,-3.394082E-1,3.8229665E-3,-1.7605385E-1,-4.610915E-1,-1.6114849E-1,-4.610915E-1,3.6203117E0,-1.7794308E-1,-2.1899025E-1,9.522358E-1,-9.164927E-2,-1.3800448E-1,9.3447244E-1,-1.717377E-1,3.272629E0,-6.47183E-3,-1.7529261E-1,-1.7341937E-1,8.017793E-1,1.9657908E-1,-2.5936065E-2,-1.6620171E-1,-4.610915E-1,9.209766E-1,1.983129E-1,3.3383265E0,3.3313005E0,-1.1570941E-1,3.6803875E-2,-1.7037703E-1,-2.6173135E-3,-1.3258547E-1,-2.0137843E-2,-4.0203094E-1,9.298788E-1,6.591307E-1,-1.0149834E-1,3.1849115E0,-1.6195647E-1,7.792756E-1,3.4837012E0,8.4924763E-1,-1.7254718E-2,-1.2928563E-1,6.36217E-1,-1.2928563E-1,7.615215E-1,6.2346447E-1,-1.2100381E-1],"split_indices":[0,16,38,0,0,16,0,0,0,0,30,23,0,2,0,2,0,0,27,0,0,0,0,0,0,5,0,0,0,0,28,0,2,0,27,0,0,0,5,0,5,0,5,23,0,0,0,0,0,0,0,0,5,0,0,0,0,0,0],"split_type":[0,0,0,0,0,0,0,0,0,0,0,0,0,0,0,0,0,0,0,0,0,0,0,0,0,0,0,0,0,0,0,0,0,0,0,0,0,0,0,0,0,0,0,0,0,0,0,0,0,0,0,0,0,0,0,0,0,0,0],"sum_hessian":[3.682435E4,2.9208748E4,7.615602E3,1.1297798E3,2.8078969E4,3.861518E3,3.754084E3,3.825176E2,7.472622E2,1.5985098E3,2.263008E3,3.6646885E3,8.9395584E1,7.377125E2,9.549677E0,1.4913412E3,1.07168594E2,2.2200347E3,4.2973545E1,3.6636274E3,1.0610752E0,3.4484944E0,7.3426404E2,2.7322687E1,1.4640186E3,4.2973545E1,6.419505E1,3.766817E1,5.305376E0,9.974107E1,1.3642775E3,1.4059246E1,2.8914299E1,5.703279E1,4.270828E1,2.440473E1,1.3398727E3,1.8568816E0,2.7057419E1,2.228258E1,2.0425697E1,2.9179568E0,2.1486773E1,7.48058E1,1.2650669E3,2.5731073E1,1.326344E0,1.0345484E1,1.00802145E1,1.4855053E1,6.63172E0,6.896989E1,5.8359137E0,2.652688E0,7.6927953E0,2.652688E0,3.979032E0,3.7137632E0,2.1221504E0],"tree_param":{"num_deleted":"0","num_feature":"41","num_nodes":"59","size_leaf_vector":"1"}},{"base_weights":[7.788513E-7,-2.3685169E-1,1.0010587E0,-2.8244796E-1,2.4318607E0,-3.4038565E-1,5.514961E-1,2.750725E0,-1.7314306E-1,5.7328695E-1,-3.9513344E-1,2.9279928E0,-2.869182E-1,1.6703606E0,9.987938E-1,-2.9268405E-1,2.7665858E0,-4.3103316E-1,1.1727565E-1,3.2515223E0,-1.7268586E-1,-3.495588E-1,9.654113E-1,2.7026591E0,-1.7329036E-1,3.1204276E0,-4.980355E-1,2.9569612E0,-3.9195365E-1,-5.0107664E-1,-1.6507716E-1,9.972079E-1,-2.9755285E-1,3.290743E0,-1.4745514E-1,-3.9609227E-1,9.520153E-1,1.5519857E0,9.89215E-1,9.6421117E-1,1.0743589E0,-1.4219742E-1,-5.842047E-1,2.504749E0,9.978509E-1,5.6110793E-1,-1.6993257E-1,-5.192323E-1,-1.4925233E-1,1.6317105E0,-5.474832E-1,-4.1909882E-1,9.835623E-1,9.9793684E-1,2.007665E0,-5.116791E-1,5.966183E-1,9.372864E-1,6.4970666E-1,4.2379233E-1,5.055095E-1,-1.7323306E-1,-2.0787972E-3,-1.7558086E-1,1.2068185E-2,9.9573106E-1,-3.2495663E-1,9.412653E-1,-5.222108E-1,-2.2932771E-1,3.0878758E0,2.4790545E0,-5.2810067E-1,1.5126992E0,-5.543327E-1,-4.268537E-1,7.6941264E-1,-1.4481397E-1,9.142862E-1,7.3172337E-1,-5.218131E-1,-5.442959E-1,2.7825482E0,1.1413102E0,-1.4110485E-2,-9.880162E-2,2.9714411E-1,3.350969E-1,-4.5860007E-1,-1.7247403E-1,7.54818E-1,-5.264742E-1,7.1558064E-1,-2.736795E-1,9.275245E-1,9.6041834E-1,5.961862E-2,3.05984E0,5.4135346E-1,6.055056E-1,-5.495693E-1,-3.564128E-1,2.6830716E0,7.3826796E-1,-5.5671215E-1,-4.558941E-1,2.7176315E-1,-3.1950837E-1,-5.667092E-1,8.058772E-1,-1.7469285E-1,9.808199E-1,-1.540092E-1,8.138435E-1,3.615845E-1,-1.1292492E-1,5.9409734E-2,-3.7140824E-2,8.269925E-1,-1.4935833E-1,3.5687923E-1,-1.5832525E-1,8.703881E-1,9.2480475E-1,-1.7256159E-1,1.7007989E-1,-1.3855304E-1,9.33362E-1,6.4935505E-2,5.171983E-3,8.260825E-1,-1.7138328E-1,6.055056E-1,5.961862E-2,-1.4619216E-1,8.858896E-1,5.961862E-2,7.193413E-1,-1.6766335E-1,-7.098233E-2,-1.5352911E-1,-1.701094E-1,2.6636118E-1,9.180189E-1,-1.4655688E-1,3.5687923E-1,-1.7082155E-1,-9.880162E-2,5.055095E-1,4.417018E-3,5.6110793E-1,-1.066193E-1,-7.091571E-3],"categories":[],"categories_nodes":[],"categories_segments":[],"categories_sizes":[],"default_left":[0,0,0,0,0,0,0,0,0,0,0,0,0,0,0,0,0,0,0,0,0,0,0,0,0,0,0,0,0,0,0,0,0,0,0,0,0,0,0,0,0,0,0,0,0,0,0,0,0,0,0,0,0,0,0,0,0,0,0,0,0,0,0,0,0,0,0,0,0,0,0,0,0,0,0,0,0,0,0,0,0,0,0,0,0,0,0,0,0,0,0,0,0,0,0,0,0,0,0,0,0,0,0,0,0,0,0,0,0,0,0,0,0,0,0,0,0,0,0,0,0,0,0,0,0,0,0,0,0,0,0,0,0,0,0,0,0,0,0,0,0,0,0,0,0,0,0,0,0,0,0,0,0],"id":3,"left_children":[1,3,-1,5,7,9,11,13,-1,15,17,19,21,23,-1,25,27,29,31,33,-1,35,-1,37,-1,39,41,43,45,47,49,-1,51,53,-1,55,-1,57,-1,-1,59,61,63,65,-1,-1,-1,67,69,71,73,75,-1,-1,77,79,81,-1,83,85,-1,-1,87,-1,-1,-1,89,-1,91,93,95,97,99,101,103,105,-1,-1,-1,-1,107,109,111,113,115,-1,-1,117,119,-1,-1,121,123,125,-1,-1,-1,127,129,-1,131,133,135,-1,137,139,141,143,145,147,-1,-1,-1,-1,149,151,-1,-1,-1,-1,-1,-1,-1,-1,-1,-1,-1,-1,-1,-1,-1,-1,-1,-1,-1,-1,-1,-1,-1,-1,-1,-1,-1,-1,-1,-1,-1,-1,-1,-1,-1,-1,-1],"loss_changes":[2.7935805E4,4.0166953E3,0E0,1.5680801E3,5.3362695E2,1.5180234E3,4.2017803E3,3.0795557E2,0E0,3.2596538E3,5.266738E2,6.252344E2,3.4350708E2,4.1215442E2,0E0,8.643536E2,2.9325806E2,4.9830176E2,2.4954336E3,7.554785E1,0E0,2.5256474E2,0E0,7.7980835E1,0E0,9.953857E0,3.5546844E1,6.818286E1,1.2308809E1,1.351875E2,3.8340269E3,0E0,7.2347327E2,1.6164062E1,0E0,1.7401433E2,0E0,5.9348083E1,0E0,0E0,1.099299E0,1.3894815E1,6.453552E-1,4.8507495E2,0E0,0E0,0E0,2.2096289E2,2.7043704E2,1.7933516E3,6.575659E1,3.8292328E1,0E0,0E0,4.2965866E1,4.1836945E1,3.9642682E2,0E0,9.398963E0,1.8396354E0,0E0,0E0,2.684007E1,0E0,0E0,0E0,3.542476E1,0E0,1.0655908E2,1.505539E2,7.624649E0,7.900127E2,1.6238281E1,3.489108E1,3.427295E1,3.2671448E1,0E0,0E0,0E0,0E0,1.2105255E1,5.852228E0,8.907822E1,1.9275278E1,2.995154E-1,0E0,0E0,1.1179596E2,5.3854685E0,0E0,0E0,8.928418E1,2.1409286E2,1.5905167E2,0E0,0E0,0E0,7.83457E1,1.8945644E2,0E0,1.6494812E1,5.9503084E-1,5.8880234E0,0E0,3.0665771E1,1.8753601E1,3.3914764E1,1.431343E2,5.9129333E0,3.839932E0,0E0,0E0,0E0,0E0,6.358589E0,2.006609E-1,0E0,0E0,0E0,0E0,0E0,0E0,0E0,0E0,0E0,0E0,0E0,0E0,0E0,0E0,0E0,0E0,0E0,0E0,0E0,0E0,0E0,0E0,0E0,0E0,0E0,0E0,0E0,0E0,0E0,0E0,0E0,0E0,0E0,0E0,0E0,0E0,0E0],"parents":[2147483647,0,0,1,1,3,3,4,4,5,5,6,6,7,7,9,9,10,10,11,11,12,12,13,13,15,15,16,16,17,17,18,18,19,19,21,21,23,23,25,25,26,26,27,27,28,28,29,29,30,30,32,32,33,33,35,35,37,37,40,40,41,41,42,42,43,43,47,47,48,48,49,49,50,50,51,51,54,54,55,55,56,56,58,58,59,59,62,62,66,66,68,68,69,69,70,70,71,71,72,72,73,73,74,74,75,75,80,80,81,81,82,82,83,83,84,84,87,87,88,88,91,91,92,92,93,93,97,97,98,98,100,100,101,101,102,102,104,104,105,105,106,106,107,107,108,108,109,109,114,114,115,115],"right_children":[2,4,-1,6,8,10,12,14,-1,16,18,20,22,24,-1,26,28,30,32,34,-1,36,-1,38,-1,40,42,44,46,48,50,-1,52,54,-1,56,-1,58,-1,-1,60,62,64,66,-1,-1,-1,68,70,72,74,76,-1,-1,78,80,82,-1,84,86,-1,-1,88,-1,-1,-1,90,-1,92,94,96,98,100,102,104,106,-1,-1,-1,-1,108,110,112,114,116,-1,-1,118,120,-1,-1,122,124,126,-1,-1,-1,128,130,-1,132,134,136,-1,138,140,142,144,146,148,-1,-1,-1,-1,150,152,-1,-1,-1,-1,-1,-1,-1,-1,-1,-1,-1,-1,-1,-1,-1,-1,-1,-1,-1,-1,-1,-1,-1,-1,-1,-1,-1,-1,-1,-1,-1,-1,-1,-1,-1,-1,-1],"split_conditions":[3.9387977E-1,3.4971015E0,1.0010587E0,1.641623E-1,2.4408614E-3,-1.8875462E-1,4.986093E-1,1.3257386E-3,-1.7314306E-1,-4.005659E-1,2.0089474E0,7.151415E0,-1.3933589E-1,1.3224292E-3,9.987938E-1,1.3389763E-3,-2.9144147E-2,-7.8377336E-2,-2.753324E-2,1.3792503E0,-1.7268586E-1,1.2657173E0,9.654113E-1,3.6203117E0,-1.7329036E-1,-8.0976754E-2,-1.7712356E-1,-3.6905715E-1,3.9395045E-2,6.504174E-2,-2.8661534E-1,9.972079E-1,-4.1644815E-1,-3.6905715E-1,-1.4745514E-1,3.011082E0,9.520153E-1,-6.47183E-3,9.89215E-1,9.6421117E-1,-3.1098124E-2,-4.031735E-1,-1.689002E-1,-3.7485185E-1,9.978509E-1,5.6110793E-1,-1.6993257E-1,1.3224292E-3,-1.5669118E-1,4.580922E-1,-1.7819083E-1,-1.8766181E-1,9.835623E-1,9.9793684E-1,1.9657908E-1,-3.9377704E-1,1.1092404E0,9.372864E-1,-3.535641E-1,-3.9432785E-1,5.055095E-1,-1.7323306E-1,-3.6281753E-1,-1.7558086E-1,1.2068185E-2,9.9573106E-1,-4.5876554E-1,9.412653E-1,4.2125452E-2,1.9657908E-1,-3.8654107E-1,-6.792598E-2,-1.7819083E-1,-3.6908868E-1,-5.2232567E-2,-4.9683255E-1,7.6941264E-1,-1.4481397E-1,9.142862E-1,7.3172337E-1,-6.8042435E-2,-2.5487986E-1,3.0394378E0,4.5227596E-1,-4.0203142E-1,-9.880162E-2,2.9714411E-1,-3.3575374E-1,-3.1889206E-1,-1.7247403E-1,7.54818E-1,-1.4344539E-1,-3.7485185E-1,-3.7485185E-1,9.275245E-1,9.6041834E-1,5.961862E-2,1.1138265E0,-6.76636E-2,6.055056E-1,-1.3933589E-1,-2.2925785E-1,1.3617061E-1,7.3826796E-1,-3.1519763E-2,3.3313005E0,-4.6732172E-1,4.157584E-2,1.3389763E-3,-4.6991017E-1,-1.7469285E-1,9.808199E-1,-1.540092E-1,8.138435E-1,3.6803875E-2,-4.682233E-3,5.9409734E-2,-3.7140824E-2,8.269925E-1,-1.4935833E-1,3.5687923E-1,-1.5832525E-1,8.703881E-1,9.2480475E-1,-1.7256159E-1,1.7007989E-1,-1.3855304E-1,9.33362E-1,6.4935505E-2,5.171983E-3,8.260825E-1,-1.7138328E-1,6.055056E-1,5.961862E-2,-1.4619216E-1,8.858896E-1,5.961862E-2,7.193413E-1,-1.6766335E-1,-7.098233E-2,-1.5352911E-1,-1.701094E-1,2.6636118E-1,9.180189E-1,-1.4655688E-1,3.5687923E-1,-1.7082155E-1,-9.880162E-2,5.055095E-1,4.417018E-3,5.6110793E-1,-1.066193E-1,-7.091571E-3],"split_indices":[15,0,0,40,29,10,40,16,0,0,0,3,13,16,0,16,3,3,5,32,0,9,0,0,0,3,14,0,1,33,36,0,25,0,0,35,0,5,0,0,5,0,14,0,0,0,0,16,13,17,10,10,0,0,0,26,34,0,30,19,0,0,23,0,0,0,1,0,37,0,1,37,10,38,9,36,0,0,0,0,37,1,25,28,23,0,0,39,19,0,0,11,0,0,0,0,0,32,37,0,13,1,6,0,5,0,1,7,16,1,0,0,0,0,5,5,0,0,0,0,0,0,0,0,0,0,0,0,0,0,0,0,0,0,0,0,0,0,0,0,0,0,0,0,0,0,0,0,0,0,0,0,0],"split_type":[0,0,0,0,0,0,0,0,0,0,0,0,0,0,0,0,0,0,0,0,0,0,0,0,0,0,0,0,0,0,0,0,0,0,0,0,0,0,0,0,0,0,0,0,0,0,0,0,0,0,0,0,0,0,0,0,0,0,0,0,0,0,0,0,0,0,0,0,0,0,0,0,0,0,0,0,0,0,0,0,0,0,0,0,0,0,0,0,0,0,0,0,0,0,0,0,0,0,0,0,0,0,0,0,0,0,0,0,0,0,0,0,0,0,0,0,0,0,0,0,0,0,0,0,0,0,0,0,0,0,0,0,0,0,0,0,0,0,0,0,0,0,0,0,0,0,0,0,0,0,0,0,0],"sum_hessian":[3.5344395E4,3.300277E4,2.3416277E3,3.244925E4,5.535173E2,3.0341861E4,2.1073884E3,5.0055887E2,5.2958416E1,1.7147833E3,2.8627078E4,5.489343E2,1.5584541E3,1.7593396E2,3.246249E2,1.2300101E3,4.847732E2,2.675291E4,1.8741677E3,5.0259573E2,4.6338615E1,1.531975E3,2.6479208E1,1.20429474E2,5.5504494E1,6.89987E1,1.1610115E3,4.5727554E2,2.7497639E1,2.1175219E4,5.5776924E3,2.1387053E2,1.6602972E3,4.9750357E2,5.0921555E0,1.5128794E3,1.9095583E1,4.226489E1,7.816458E1,6.54342E1,3.5645087E0,2.2685551E2,9.341559E2,2.0903297E2,2.4824257E2,1.2730389E0,2.62246E1,2.0135654E4,1.0395635E3,9.7820306E2,4.5994893E3,1.606575E3,5.372224E1,4.8248172E2,1.5021858E1,1.3555317E3,1.573476E2,1.4512643E1,2.7752247E1,2.5460777E0,1.0184311E0,5.448606E1,1.7236946E2,9.3262823E2,1.5276465E0,1.6218515E2,4.6847828E1,1.5531074E1,2.0120125E4,1.0153758E3,2.4187738E1,7.024628E2,2.757402E2,1.4512643E1,4.5849766E3,1.6032651E3,3.309901E0,4.5829396E0,1.0438918E1,3.8191166E0,1.3517126E3,1.0387997E2,5.3467632E1,1.5531074E1,1.2221172E1,1.2730389E0,1.2730389E0,9.929703E1,7.3072426E1,4.3792538E1,3.055293E0,2.0051635E4,6.848949E1,1.00289996E3,1.24757805E1,2.3169308E1,1.0184311E0,5.400231E2,1.6243976E2,1.5276465E0,2.7421255E2,5.8559785E0,8.656664E0,2.8006854E0,4.582176E3,1.5396132E3,6.3651943E1,2.4696953E2,1.104743E3,2.2914698E0,1.015885E2,4.659322E1,6.8744097E0,4.328332E0,1.1202742E1,8.656664E0,3.5645087E0,8.427517E1,1.5021858E1,7.2054E1,1.0184311E0,2.0045016E4,6.619802E0,2.3678522E1,4.4810966E1,1.8306299E2,8.1983704E2,5.3034796E2,9.675096E0,1.3214143E2,3.0298325E1,2.726849E2,1.5276465E0,1.0184311E0,4.837548E0,7.638233E0,1.0184311E0,2.5460777E0,4.57963E3,3.1367676E2,1.2259364E3,2.6988422E1,3.6663517E1,1.0948134E1,2.360214E2,1.0184311E0,1.1037246E3,1.2730389E0,1.0184311E0,9.929703E0,1.2730389E0,1.5276465E0,7.1290174E0],"tree_param":{"num_deleted":"0","num_feature":"41","num_nodes":"153","size_leaf_vector":"1"}},{"base_weights":[6.7393484E-7,-4.1647267E-1,2.6429923E0,1.6153504E0,-5.5848974E-1,3.3751707E0,-1.7562792E-1,-4.173893E-2,3.1557822E0,-5.614309E-1,9.1391337E-1,1.561811E0,3.3978887E0,-4.1718554E-1,1.5502568E0,3.364962E0,-1.7262505E-1,4.9181232E-1,-5.6426144E-1,2.5467455E0,-2.7086946E-1,3.0458927E0,-5.1250154E-1,-1.4531372E-1,1.0208614E0,2.004388E-2,-1.7551139E-1,-4.8579505E-1,2.686574E0,-1.4240615E-1,1.0147512E0,9.731925E-1,-1.7265403E-1,-5.8077484E-1,-4.93548E-1,3.088292E0,-1.3683261E-1,6.813288E-1,-5.041984E-1,9.837485E-1,-1.11994125E-1,-1.6727221E-1,6.1783805E-2,-1.6388837E-1,1.6682606E0,6.072481E-1,-5.297621E-1,3.1721842E0,2.696944E-1,-5.8225656E-1,-2.7031276E-1,2.7679095E0,-5.823003E-1,9.682114E-1,6.1783805E-2,-1.6998194E-1,1.340304E-1,1.0335849E-1,-5.2996486E-1,2.2650907E0,-1.4392604E-1,3.614031E-1,-8.802584E-2,-1.6820377E-1,1.6849801E-1,9.84729E-1,-1.2902816E-1,-1.6503406E-1,8.27028E-1,-5.8243304E-1,1.7663875E-1,1.1773484E0,-5.687568E-1,3.2228143E0,-1.659464E-1,-5.836497E-1,-9.783042E-2,-1.6551036E-1,2.1797198E-1,-1.73161E-1,-3.129511E-1,-9.77927E-2,7.474235E-1,-3.39362E-1,-5.8256394E-1,5.1121277E-1,-1.4073418E-1,8.8237876E-1,-1.5912138E-1,6.1783805E-2,-1.7388518E-1,-1.4392604E-1,1.0100555E0,-1.752694E-1,2.0924284E-1,6.132996E-1,-4.730693E-1,-8.597933E-2,7.707353E-1,-1.6307107E-1,5.582475E-1,3.614031E-1,-1.6283476E-1,-5.761939E-1,-1.7564192E-1,3.614031E-1,-1.2568285E-1,6.1783805E-2,-1.6233492E-1,-1.0542862E-1,2.4188212E-1,4.7268313E-1,3.004582E-2,2.5384772E-1,1.4213101E-2,-1.7415713E-1,2.0610182E-1],"categories":[],"categories_nodes":[],"categories_segments":[],"categories_sizes":[],"default_left":[0,0,0,0,0,0,0,0,0,0,0,0,0,0,0,0,0,0,0,0,0,0,0,0,0,0,0,0,0,0,0,0,0,0,0,0,0,0,0,0,0,0,0,0,0,0,0,0,0,0,0,0,0,0,0,0,0,0,0,0,0,0,0,0,0,0,0,0,0,0,0,0,0,0,0,0,0,0,0,0,0,0,0,0,0,0,0,0,0,0,0,0,0,0,0,0,0,0,0,0,0,0,0,0,0,0,0,0,0,0,0,0,0,0,0,0,0],"id":4,"left_children":[1,3,5,7,9,11,-1,13,15,17,19,21,23,25,27,29,-1,31,33,35,37,39,41,-1,-1,43,-1,45,47,-1,-1,-1,-1,49,51,53,-1,-1,55,-1,-1,-1,-1,57,59,61,63,65,67,69,71,73,75,-1,-1,-1,-1,77,79,81,-1,-1,-1,-1,-1,-1,-1,-1,-1,83,85,87,89,91,-1,93,95,-1,97,-1,99,-1,-1,101,103,-1,-1,-1,-1,-1,-1,-1,-1,-1,105,-1,107,109,111,-1,113,-1,-1,115,-1,-1,-1,-1,-1,-1,-1,-1,-1,-1,-1,-1,-1],"loss_changes":[3.8300035E4,8.674372E3,1.1198023E4,5.013442E3,1.2218359E2,1.5375E2,0E0,5.667663E2,7.963428E2,8.387305E1,1.0977998E2,1.5432373E2,7.539453E1,5.6315964E1,4.1996545E2,6.653125E1,0E0,2.242009E2,3.2368164E1,4.012451E1,2.106339E1,2.4411133E1,8.127346E-1,0E0,0E0,6.5085846E1,0E0,3.4773664E0,1.356322E2,0E0,0E0,0E0,0E0,1.0268555E1,1.5360303E3,7.472641E0,0E0,0E0,2.127204E0,0E0,0E0,0E0,0E0,1.8959726E1,2.8716465E1,1.9704648E0,2.4629936E0,3.9831726E1,4.341535E1,3.125E0,4.79895E1,2.1420251E2,3.3171387E0,0E0,0E0,0E0,0E0,8.569063E0,6.569481E-1,1.0805008E1,0E0,0E0,0E0,0E0,0E0,0E0,0E0,0E0,0E0,5.2001953E-1,6.7298727E0,5.893213E1,8.890419E-1,6.76449E1,0E0,2.4956055E0,1.3455984E1,0E0,1.62782E1,0E0,3.676816E0,0E0,0E0,5.2189484E0,8.0078125E-2,0E0,0E0,0E0,0E0,0E0,0E0,0E0,0E0,0E0,3.3241808E0,0E0,7.598369E-1,1.5242093E1,1.8373743E1,0E0,5.493748E-1,0E0,0E0,3.939038E1,0E0,0E0,0E0,0E0,0E0,0E0,0E0,0E0,0E0,0E0,0E0,0E0,0E0],"parents":[2147483647,0,0,1,1,2,2,3,3,4,4,5,5,7,7,8,8,9,9,10,10,11,11,12,12,13,13,14,14,15,15,17,17,18,18,19,19,20,20,21,21,22,22,25,25,27,27,28,28,33,33,34,34,35,35,38,38,43,43,44,44,45,45,46,46,47,47,48,48,49,49,50,50,51,51,52,52,57,57,58,58,59,59,69,69,70,70,71,71,72,72,73,73,75,75,76,76,78,78,80,80,83,83,84,84,94,94,96,96,97,97,98,98,100,100,103,103],"right_children":[2,4,6,8,10,12,-1,14,16,18,20,22,24,26,28,30,-1,32,34,36,38,40,42,-1,-1,44,-1,46,48,-1,-1,-1,-1,50,52,54,-1,-1,56,-1,-1,-1,-1,58,60,62,64,66,68,70,72,74,76,-1,-1,-1,-1,78,80,82,-1,-1,-1,-1,-1,-1,-1,-1,-1,84,86,88,90,92,-1,94,96,-1,98,-1,100,-1,-1,102,104,-1,-1,-1,-1,-1,-1,-1,-1,-1,106,-1,108,110,112,-1,114,-1,-1,116,-1,-1,-1,-1,-1,-1,-1,-1,-1,-1,-1,-1,-1],"split_conditions":[1.1138265E0,-2.1931215E-1,-1.6216302E-1,-1.7712356E-1,7.427765E-1,-1.4673445E-1,-1.7562792E-1,-3.3068332E-1,-4.005659E-1,-2.193117E-1,-7.815942E-2,-1.5350723E-1,-2.4168272E-1,-4.005659E-1,2.4210045E-3,-4.0549138E-1,-1.7262505E-1,-4.199974E-1,6.504174E-2,-4.005659E-1,-3.1511318E-2,-4.005659E-1,-1.8565826E-1,-1.4531372E-1,1.0208614E0,1.3422858E-3,-1.7551139E-1,4.9781013E-1,3.5812792E-1,-1.4240615E-1,1.0147512E0,9.731925E-1,-1.7265403E-1,5.4623306E-1,-4.6128204E-1,-1.636201E-1,-1.3683261E-1,6.813288E-1,1.7637569E0,9.837485E-1,-1.11994125E-1,-1.6727221E-1,6.1783805E-2,-4.610915E-1,-4.0125844E-1,-4.005659E-1,2.542648E0,-4.005659E-1,-6.33555E-2,6.641016E0,2.3813972E-1,-4.005659E-1,7.6852827E0,9.682114E-1,6.1783805E-2,-1.6998194E-1,1.340304E-1,-4.012178E-1,-3.5066807E-1,-4.031735E-1,-1.4392604E-1,3.614031E-1,-8.802584E-2,-1.6820377E-1,1.6849801E-1,9.84729E-1,-1.2902816E-1,-1.6503406E-1,8.27028E-1,-2.1931104E-1,-4.713482E-1,-6.799756E-2,-7.8711994E-2,-4.7177032E-1,-1.659464E-1,2.9518574E-1,-3.6964E-1,-1.6551036E-1,-4.0200397E-1,-1.73161E-1,-2.1956943E-1,-9.77927E-2,7.474235E-1,-1.5669635E-1,-4.199974E-1,5.1121277E-1,-1.4073418E-1,8.8237876E-1,-1.5912138E-1,6.1783805E-2,-1.7388518E-1,-1.4392604E-1,1.0100555E0,-1.752694E-1,-4.005659E-1,6.132996E-1,-3.235401E-1,-9.463062E-2,-3.3575374E-1,-1.6307107E-1,-2.1941443E-1,3.614031E-1,-1.6283476E-1,1.0984322E-2,-1.7564192E-1,3.614031E-1,-1.2568285E-1,6.1783805E-2,-1.6233492E-1,-1.0542862E-1,2.4188212E-1,4.7268313E-1,3.004582E-2,2.5384772E-1,1.4213101E-2,-1.7415713E-1,2.0610182E-1],"split_indices":[32,27,10,14,32,13,0,26,0,27,3,13,9,0,29,0,0,4,33,0,5,0,23,0,0,16,0,30,33,0,0,0,0,32,1,10,0,0,2,0,0,0,0,2,23,0,19,0,1,37,7,0,33,0,0,0,0,0,30,0,0,0,0,0,0,0,0,0,0,27,1,37,3,2,0,4,38,0,23,0,28,0,0,13,4,0,0,0,0,0,0,0,0,0,0,0,17,31,39,0,28,0,0,8,0,0,0,0,0,0,0,0,0,0,0,0,0],"split_type":[0,0,0,0,0,0,0,0,0,0,0,0,0,0,0,0,0,0,0,0,0,0,0,0,0,0,0,0,0,0,0,0,0,0,0,0,0,0,0,0,0,0,0,0,0,0,0,0,0,0,0,0,0,0,0,0,0,0,0,0,0,0,0,0,0,0,0,0,0,0,0,0,0,0,0,0,0,0,0,0,0,0,0,0,0,0,0,0,0,0,0,0,0,0,0,0,0,0,0,0,0,0,0,0,0,0,0,0,0,0,0,0,0,0,0,0,0],"sum_hessian":[3.479295E4,3.0057445E4,4.7355044E3,1.9629761E3,2.8094469E4,3.8600352E3,8.754693E2,9.4614844E2,1.01682764E3,2.8039078E4,5.5390415E1,4.862326E1,3.8114119E3,7.6619226E2,1.7995619E2,9.6294104E2,5.38866E1,7.468934E1,2.7964389E4,2.2807817E1,3.2582596E1,2.807116E1,2.05521E1,4.7620716E0,3.80665E3,2.1278941E2,5.534029E2,6.4663925E1,1.1529227E2,4.260801E0,9.5868024E2,2.0301464E1,5.438787E1,2.2664453E4,5.299935E3,1.9298922E1,3.508895E0,2.0050828E0,3.0577513E1,2.6316711E1,1.7544475E0,1.9549559E1,1.0025414E0,1.9223732E2,2.05521E1,2.0050828E0,6.265884E1,9.574271E1,1.9549559E1,2.255593E4,1.0852511E2,1.396039E2,5.1603315E3,1.8296381E1,1.0025414E0,2.9073702E1,1.5038121E0,1.1153273E2,8.070458E1,1.6040663E1,4.5114365E0,1.0025414E0,1.0025414E0,6.1405663E1,1.2531768E0,9.298572E1,2.756989E0,1.5288756E1,4.260801E0,2.2550916E4,5.012707E0,1.8045746E1,9.047936E1,1.22811325E2,1.6792568E1,5.1457944E3,1.4536851E1,1.6040663E1,9.549207E1,6.491456E1,1.5790028E1,1.2531768E0,1.4787486E1,1.3534309E1,2.253738E4,1.0025414E0,4.0101657E0,8.521602E0,9.524143E0,1.0025414E0,8.947682E1,4.5114365E0,1.1829989E2,5.1422856E3,3.508895E0,1.5038121E0,1.3033038E1,6.215757E1,3.3334503E1,1.2782403E1,3.0076241E0,1.0025414E0,1.2531768E1,7.1280693E3,1.54093125E4,1.0025414E0,2.5063536E0,1.0025414E0,1.2030497E1,4.8372623E1,1.3784945E1,1.4536851E1,1.8797651E1,1.5038121E0,1.5038121E0,7.1042593E3,2.3810358E1],"tree_param":{"num_deleted":"0","num_feature":"41","num_nodes":"117","size_leaf_vector":"1"}},{"base_weights":[7.4129076E-7,1.7817416E0,-5.697531E-1,-1.7549855E-1,3.220199E0,-5.733966E-1,-1.5431675E-1,3.3954713E0,-1.7507766E-1,-5.8396804E-1,-4.7876254E-1,-5.300977E-1,2.9837148E0,-1.4074582E-1,3.398659E0,-5.841791E-1,-3.2080767E-1,1.0543053E0,-5.8102065E-1,8.743445E-1,-5.586431E-1,-9.780563E-2,9.520866E-1,1.019897E0,-9.780563E-2,-2.9838058E-1,-1.752664E-1,-1.6684215E-1,4.9339634E-1,3.5296205E-1,3.043592E0,-5.842462E-1,-1.8780786E-1,6.13199E-1,-1.1733103E-1,-5.683932E-1,2.115504E-1,6.175596E-2,-1.3684455E-1,-1.7394017E-1,3.1028347E0,9.952654E-1,-1.3196728E-1,-1.756397E-1,-4.370902E-1,6.152258E-1,-1.6672534E-1,-4.4160673E-1,-1.7485079E-1,9.8665494E-1,-1.0561722E-1,-1.6821094E-1,3.613448E-1,3.613448E-1,-1.6845176E-1],"categories":[],"categories_nodes":[],"categories_segments":[],"categories_sizes":[],"default_left":[0,0,0,0,0,0,0,0,0,0,0,0,0,0,0,0,0,0,0,0,0,0,0,0,0,0,0,0,0,0,0,0,0,0,0,0,0,0,0,0,0,0,0,0,0,0,0,0,0,0,0,0,0,0,0],"id":5,"left_children":[1,3,5,-1,7,9,11,13,-1,15,17,19,21,-1,23,25,27,29,31,33,35,-1,-1,-1,-1,37,-1,-1,-1,39,41,43,45,-1,-1,47,-1,-1,-1,-1,49,-1,-1,-1,51,-1,-1,53,-1,-1,-1,-1,-1,-1,-1],"loss_changes":[3.5329387E4,2.8709326E4,3.9825195E1,0E0,3.4987188E3,2.587207E1,2.7354178E2,6.336328E1,0E0,1.1176758E0,4.1325922E2,8.779671E0,1.6632019E1,0E0,1.9714844E1,1.0888672E-1,1.0653341E1,2.2905779E2,3.020874E0,7.4742365E0,2.905964E0,0E0,0E0,0E0,0E0,5.3241754E-1,0E0,0E0,0E0,3.1750726E2,4.2366425E1,1.8328857E-1,1.8894812E1,0E0,0E0,1.1306763E-1,0E0,0E0,0E0,0E0,2.1294373E1,0E0,0E0,0E0,5.558238E0,0E0,0E0,5.573964E0,0E0,0E0,0E0,0E0,0E0,0E0,0E0],"parents":[2147483647,0,0,1,1,2,2,4,4,5,5,6,6,7,7,9,9,10,10,11,11,12,12,14,14,15,15,16,16,17,17,18,18,19,19,20,20,25,25,29,29,30,30,31,31,32,32,35,35,40,40,44,44,47,47],"right_children":[2,4,6,-1,8,10,12,14,-1,16,18,20,22,-1,24,26,28,30,32,34,36,-1,-1,-1,-1,38,-1,-1,-1,40,42,44,46,-1,-1,48,-1,-1,-1,-1,50,-1,-1,-1,52,-1,-1,54,-1,-1,-1,-1,-1,-1,-1],"split_conditions":[-4.9683127E-1,-3.4743676E-1,2.4607184E-3,-1.7549855E-1,-4.6732172E-1,-2.1637769E-1,-3.7485185E-1,-4.199974E-1,-1.7507766E-1,4.3419747E0,-1.7961144E-1,-4.968303E-1,-2.0590138E-1,-1.4074582E-1,-1.8766181E-1,-4.0549138E-1,-3.7753192E-1,-1.1813712E-1,3.4428915E-1,-4.6991017E-1,-6.8003334E-2,-9.780563E-2,9.520866E-1,1.019897E0,-9.780563E-2,6.135354E-2,-1.752664E-1,-1.6684215E-1,4.9339634E-1,1.3538689E-3,-4.6732172E-1,-6.787407E-2,-8.058762E-2,6.13199E-1,-1.1733103E-1,-4.9682814E-1,2.115504E-1,6.175596E-2,-1.3684455E-1,-1.7394017E-1,-1.8329059E-1,9.952654E-1,-1.3196728E-1,-1.756397E-1,-8.044753E-2,6.152258E-1,-1.6672534E-1,-3.8654107E-1,-1.7485079E-1,9.8665494E-1,-1.0561722E-1,-1.6821094E-1,3.613448E-1,3.613448E-1,-1.6845176E-1],"split_indices":[36,17,29,0,1,27,0,4,0,34,8,36,15,0,10,0,0,33,5,1,37,0,0,0,0,14,0,0,0,16,1,37,3,0,0,36,0,0,0,0,10,0,0,0,3,0,0,1,0,0,0,0,0,0,0],"split_type":[0,0,0,0,0,0,0,0,0,0,0,0,0,0,0,0,0,0,0,0,0,0,0,0,0,0,0,0,0,0,0,0,0,0,0,0,0,0,0,0,0,0,0,0,0,0,0,0,0,0,0,0,0,0,0],"sum_hessian":[3.4800008E4,8.431329E3,2.6368678E4,3.187475E3,5.243854E3,2.613905E4,2.2962856E2,5.0129717E3,2.3088199E2,2.3507848E4,2.6312024E3,2.0581337E2,2.381519E1,4.010979E0,5.008961E3,2.3487793E4,2.0054895E1,1.6394878E2,2.4672537E3,3.5096068E0,2.0230376E2,1.253431E0,2.2561758E1,5.0077075E3,1.253431E0,4.5123515E0,2.3483281E4,1.855078E1,1.5041173E0,1.22084175E2,4.1864594E1,2.4466973E3,2.0556269E1,1.5041173E0,2.0054896E0,2.0130101E2,1.0027448E0,1.0027448E0,3.5096068E0,9.175115E1,3.033303E1,3.885636E1,3.0082345E0,2.4236343E3,2.306313E1,2.2561758E0,1.8300093E1,2.381519E1,1.7748582E2,2.8828913E1,1.5041173E0,2.2060385E1,1.0027448E0,1.0027448E0,2.2812445E1],"tree_param":{"num_deleted":"0","num_feature":"41","num_nodes":"55","size_leaf_vector":"1"}},{"base_weights":[-1.6560529E-5,-1.53803E-1,5.9943857E0],"categories":[],"categories_nodes":[],"categories_segments":[],"categories_sizes":[],"default_left":[0,0,0],"id":6,"left_children":[1,-1,-1],"loss_changes":[6.900542E4,0E0,0E0],"parents":[2147483647,0,0],"right_children":[2,-1,-1],"split_conditions":[3.8796058E0,-1.53803E-1,5.9943857E0],"split_indices":[6,0,0],"split_type":[0,0,0],"sum_hessian":[6.734431E3,6.5669185E3,1.6751303E2],"tree_param":{"num_deleted":"0","num_feature":"41","num_nodes":"3","size_leaf_vector":"1"}},{"base_weights":[-1.6996162E-5,-3.818575E-1,1.180154E1,-4.269438E-1,3.665568E0,1.8766994E1,1.6211432E0,-4.408004E-1,3.7506464E0,5.731758E0,-1.5102024E-1,-1.3723272E-1,6.050601E0,-1.5153155E-1,1.0466947E1,9.4310485E-4,-4.6561193E-1,4.9833894E0,-1.4457443E-1,5.492201E0,-1.3425E-1,2.1678216E0,-1.531785E-1,-4.8037413E-1,8.994499E-2,4.7508063E0,-1.4902443E-1,-4.9577245E-1,-2.6630476E-1,4.9797235E0,-1.5272263E-1,-1.4748234E-1,5.4611254E0,-1.537118E-1,-2.83715E-1,-1.5334061E-1,8.763349E0,-1.5334953E-1,4.9480643E0,-1.2743853E-1,5.0538864E0],"categories":[],"categories_nodes":[],"categories_segments":[],"categories_sizes":[],"default_left":[0,0,0,0,0,0,0,0,0,0,0,0,0,0,0,0,0,0,0,0,0,0,0,0,0,0,0,0,0,0,0,0,0,0,0,0,0,0,0,0,0],"id":7,"left_children":[1,3,5,7,9,11,13,15,17,-1,-1,-1,-1,-1,19,21,23,-1,-1,-1,-1,25,-1,27,29,31,-1,33,35,-1,-1,-1,-1,-1,37,-1,39,-1,-1,-1,-1],"loss_changes":[2.9722361E4,1.1674519E3,1.462808E4,3.674712E2,4.5471E3,3.314043E3,1.6053649E3,6.9045166E1,1.1509415E3,0E0,0E0,0E0,0E0,0E0,1.422899E3,3.735519E2,4.8959595E1,0E0,0E0,0E0,0E0,4.4534247E2,0E0,1.9020508E1,1.5435488E3,2.3205488E3,0E0,1.8931274E1,8.712121E2,0E0,0E0,0E0,0E0,0E0,1.5182894E3,0E0,7.7988666E2,0E0,0E0,0E0,0E0],"parents":[2147483647,0,0,1,1,2,2,3,3,4,4,5,5,6,6,7,7,8,8,14,14,15,15,16,16,21,21,23,23,24,24,25,25,27,27,28,28,34,34,36,36],"right_children":[2,4,6,8,10,12,14,16,18,-1,-1,-1,-1,-1,20,22,24,-1,-1,-1,-1,26,-1,28,30,32,-1,34,36,-1,-1,-1,-1,-1,38,-1,40,-1,-1,-1,-1],"split_conditions":[6.421431E-1,4.8471224E-1,-4.132772E-1,4.859714E0,-2.4929461E-1,-9.861937E-2,1.4832798E0,-1.8094917E-1,1.9227738E0,5.731758E0,-1.5102024E-1,-1.3723272E-1,6.050601E0,-1.5153155E-1,-2.706244E-1,1.3307028E-3,2.7803812E0,4.9833894E0,-1.4457443E-1,5.492201E0,-1.3425E-1,-3.6905715E-1,-1.531785E-1,-6.786573E-2,-3.889452E-1,-3.7485185E-1,-1.4902443E-1,2.4271996E-1,-1.4594564E-1,4.9797235E0,-1.5272263E-1,-1.4748234E-1,5.4611254E0,-1.537118E-1,-2.2045727E-1,-1.5334061E-1,-3.7485185E-1,-1.5334953E-1,4.9480643E0,-1.2743853E-1,5.0538864E0],"split_indices":[8,8,32,25,2,36,40,11,23,0,0,0,0,0,17,16,24,0,0,0,0,0,0,37,26,0,0,39,11,0,0,0,0,0,28,0,0,0,0,0,0],"split_type":[0,0,0,0,0,0,0,0,0,0,0,0,0,0,0,0,0,0,0,0,0,0,0,0,0,0,0,0,0,0,0,0,0,0,0,0,0,0,0,0,0],"sum_hessian":[6.5937163E3,6.3879995E3,2.0571669E2,6.318509E3,6.949054E1,1.21644066E2,8.4072624E1,6.298512E3,1.9996935E1,1.4012104E1,5.547843E1,8.312265E0,1.133318E2,6.8540565E1,1.5532062E1,3.3500803E2,5.963504E3,4.2273808E0,1.5769554E1,8.644755E0,6.8873053E0,6.336321E1,2.7164484E2,5.809276E3,1.5422815E2,3.1776602E1,3.1586607E1,5.418219E3,3.9105646E2,4.464874E0,1.4976328E2,2.3559334E1,8.217268E0,5.023553E3,3.9466635E2,3.8165173E2,9.404735E0,3.9034396E2,4.3223777E0,4.844863E0,4.559871E0],"tree_param":{"num_deleted":"0","num_feature":"41","num_nodes":"41","size_leaf_vector":"1"}},{"base_weights":[3.2947198E-2,1.2860478E0,-5.83521E-1,1.3038175E0,-1.7407346E-1,-1.7517029E-1,-1.5164793E-1,1.3068452E0,-1.6749741E-1,1.3074545E0,-1.4156827E-1,2.0211013E-1,3.9244145E-1,-1.4743331E-1,3.493672E-1],"categories":[],"categories_nodes":[],"categories_segments":[],"categories_sizes":[],"default_left":[0,0,0,0,0,0,0,0,0,0,0,0,0,0,0],"id":8,"left_children":[1,3,5,7,-1,-1,-1,9,-1,11,-1,13,-1,-1,-1],"loss_changes":[2.9957525E4,4.2482422E2,4.7558594E-1,7.215039E1,0E0,0E0,0E0,1.4324219E1,0E0,9.287109E0,0E0,6.578163E0,0E0,0E0,0E0],"parents":[2147483647,0,0,1,1,2,2,3,3,7,7,9,9,11,11],"right_children":[2,4,6,8,-1,-1,-1,10,-1,12,-1,14,-1,-1,-1],"split_conditions":[-4.031735E-1,-2.0590138E-1,8.50795E-1,-1.15448445E-1,-1.7407346E-1,-1.7517029E-1,-1.5164793E-1,-6.73617E-2,-1.6749741E-1,2.4011475E-3,-1.4156827E-1,-6.8032816E-2,3.9244145E-1,-1.4743331E-1,3.493672E-1],"split_indices":[0,15,14,14,0,0,0,37,0,29,0,37,0,0,0],"split_type":[0,0,0,0,0,0,0,0,0,0,0,0,0,0,0],"sum_hessian":[3.8778164E4,1.2786282E4,2.599188E4,1.2665986E4,1.2029617E2,2.5859482E4,1.323991E2,1.2645723E4,2.0263012E1,1.2641657E4,4.0655394E0,7.9973955E0,1.263366E4,4.932407E0,3.0649889E0],"tree_param":{"num_deleted":"0","num_feature":"41","num_nodes":"15","size_leaf_vector":"1"}},{"base_weights":[2.064599E-2,1.1849241E0,-4.9282563E-1,2.844903E-1,1.3468406E0,-5.263764E-1,9.513973E-1,6.284523E-1,-1.7046621E-1,-1.6889834E-1,1.3594096E0,-5.65487E-1,-8.348829E-2,1.3524349E0,-1.5280512E-1,9.831926E-1,-3.2503444E-1,1.3607397E0,-1.4787832E-1,-1.7002366E-1,-5.391193E-1,-5.050502E-1,9.989332E-1,-1.2801898E-1,4.0993574E-1,-1.6916272E-1,1.288182E0,-4.4054112E-1,8.4994125E-1,-1.08060606E-1,4.0831226E-1,7.5542426E-1,-1.6978924E-1,-5.3942573E-1,1.9245654E-1,1.2255234E0,-1.6785933E-1,1.3181462E0,-1.6406962E-1,2.1333496E-1,-5.464902E-1,4.1015437E-1,-1.5035622E-1,-1.4650105E-1,1.3187886E0,-5.458261E-1,-1.0814779E-1,-1.658742E-1,1.1105621E0,-1.6793767E-1,1.3491317E0,-1.5922701E-1,1.3340871E0,8.4665495E-1,-1.6123052E-1,-1.711342E-1,-2.8579667E-1,4.4075736E-1,-8.682701E-2,-3.9541197E-1,-5.596028E-1,3.996978E-1,-1.5936276E-1,-1.3597837E-1,4.124369E-1,-1.4346154E-1,4.1131163E-1,-1.500569E-1,1.3465358E0,-1.3114357E-1,1.0499918E0,-1.616709E-1,7.357755E-1,-1.6829112E-1,8.636338E-1,-3.3546925E-1,-1.6944641E-1,4.114447E-1,1.1622322E0,7.9396594E-1,4.4763112E-1,3.7362325E-1,-9.855545E-2,-1.3707362E-1,4.5798197E-1,3.4099573E-1,-1.6219778E-1,3.76714E-1,-1.4370303E-1,-1.1715489E-1,2.9493806E-1],"categories":[],"categories_nodes":[],"categories_segments":[],"categories_sizes":[],"default_left":[0,0,0,0,0,0,0,0,0,0,0,0,0,0,0,0,0,0,0,0,0,0,0,0,0,0,0,0,0,0,0,0,0,0,0,0,0,0,0,0,0,0,0,0,0,0,0,0,0,0,0,0,0,0,0,0,0,0,0,0,0,0,0,0,0,0,0,0,0,0,0,0,0,0,0,0,0,0,0,0,0,0,0,0,0,0,0,0,0,0,0],"id":9,"left_children":[1,3,5,7,9,11,13,15,-1,-1,17,19,21,23,-1,25,27,29,-1,-1,31,33,35,-1,-1,-1,37,39,41,-1,-1,43,-1,45,47,49,-1,51,-1,53,55,-1,-1,-1,57,59,61,-1,63,-1,65,-1,67,69,-1,-1,71,-1,-1,73,75,-1,-1,-1,-1,-1,-1,-1,77,-1,79,-1,81,-1,83,85,-1,-1,87,89,-1,-1,-1,-1,-1,-1,-1,-1,-1,-1,-1],"loss_changes":[1.9939373E4,1.4878457E3,1.1220171E3,4.570422E2,2.0844727E2,3.9178076E2,3.087367E2,3.757609E2,0E0,0E0,2.1845703E1,3.8427734E-1,8.3859436E2,1.0879395E1,0E0,3.8256146E2,4.132531E1,4.9414062E0,0E0,0E0,3.4045166E1,3.181427E1,1.8260223E2,0E0,0E0,0E0,3.7907715E1,1.9194748E1,1.9798088E1,0E0,0E0,1.4714506E1,0E0,3.420807E0,4.3627094E1,1.0007721E2,0E0,2.0328857E1,0E0,1.905518E1,1.3188248E0,0E0,0E0,0E0,3.8335304E0,2.352417E0,1.2702316E1,0E0,1.2397903E1,0E0,1.75177E1,0E0,1.5751343E1,6.0995064E0,0E0,0E0,6.0780725E0,0E0,0E0,2.2917374E1,1.1384583E0,0E0,0E0,0E0,0E0,0E0,0E0,0E0,1.4227295E0,0E0,9.599781E-1,0E0,3.0050218E0,0E0,1.1991884E1,9.161834E0,0E0,0E0,1.3608437E1,3.5511875E0,0E0,0E0,0E0,0E0,0E0,0E0,0E0,0E0,0E0,0E0,0E0],"parents":[2147483647,0,0,1,1,2,2,3,3,4,4,5,5,6,6,7,7,10,10,11,11,12,12,13,13,15,15,16,16,17,17,20,20,21,21,22,22,26,26,27,27,28,28,31,31,33,33,34,34,35,35,37,37,39,39,40,40,44,44,45,45,46,46,48,48,50,50,52,52,53,53,56,56,59,59,60,60,68,68,70,70,72,72,74,74,75,75,78,78,79,79],"right_children":[2,4,6,8,10,12,14,16,-1,-1,18,20,22,24,-1,26,28,30,-1,-1,32,34,36,-1,-1,-1,38,40,42,-1,-1,44,-1,46,48,50,-1,52,-1,54,56,-1,-1,-1,58,60,62,-1,64,-1,66,-1,68,70,-1,-1,72,-1,-1,74,76,-1,-1,-1,-1,-1,-1,-1,78,-1,80,-1,82,-1,84,86,-1,-1,88,90,-1,-1,-1,-1,-1,-1,-1,-1,-1,-1,-1],"split_conditions":[-4.1939816E-1,-1.5947726E-1,1.9200292E-1,-4.005659E-1,-1.8693328E-1,1.7138098E-1,1.0407955E-1,-4.9682015E-1,-1.7046621E-1,-1.6889834E-1,-1.8584047E-1,1.8708952E-1,-6.786573E-2,2.0969053E-1,-1.5280512E-1,-4.012178E-1,-3.1284177E-1,-2.1930923E-1,-1.4787832E-1,-1.7002366E-1,4.585316E-2,-1.4670265E-1,-2.0432623E-1,-1.2801898E-1,4.0993574E-1,-1.6916272E-1,-4.1644815E-1,-4.968093E-1,-4.0686753E-1,-1.08060606E-1,4.0831226E-1,9.5504716E-2,-1.6978924E-1,-6.787407E-2,-6.803132E-2,2.3812903E-3,-1.6785933E-1,2.3812903E-3,-1.6406962E-1,1.3422858E-3,-1.8693328E-1,4.1015437E-1,-1.5035622E-1,-1.4650105E-1,-7.828394E-2,-3.9497843E-1,1.134338E-1,-1.658742E-1,-2.1929596E-1,-1.6793767E-1,-3.5584253E-1,-1.5922701E-1,-3.5357404E-1,2.3812903E-3,-1.6123052E-1,-1.711342E-1,-3.9280125E-1,4.4075736E-1,-8.682701E-2,-1.9152607E-1,-3.6920437E-1,3.996978E-1,-1.5936276E-1,-1.3597837E-1,4.124369E-1,-1.4346154E-1,4.1131163E-1,-1.500569E-1,-4.7912204E-1,-1.3114357E-1,-1.882648E-1,-1.616709E-1,-1.8584047E-1,-1.6829112E-1,-1.7527668E-1,1.892455E-1,-1.6944641E-1,4.114447E-1,-5.5580527E-2,-3.533966E-1,4.4763112E-1,3.7362325E-1,-9.855545E-2,-1.3707362E-1,4.5798197E-1,3.4099573E-1,-1.6219778E-1,3.76714E-1,-1.4370303E-1,-1.1715489E-1,2.9493806E-1],"split_indices":[7,19,20,0,10,8,11,36,0,0,10,24,37,3,0,0,19,27,0,0,40,13,23,0,0,0,25,36,36,0,0,8,0,37,37,29,0,29,0,16,10,0,0,0,3,19,9,0,27,0,23,0,30,29,0,0,19,0,0,38,38,0,0,0,0,0,0,0,35,0,27,0,10,0,10,8,0,0,31,30,0,0,0,0,0,0,0,0,0,0,0],"split_type":[0,0,0,0,0,0,0,0,0,0,0,0,0,0,0,0,0,0,0,0,0,0,0,0,0,0,0,0,0,0,0,0,0,0,0,0,0,0,0,0,0,0,0,0,0,0,0,0,0,0,0,0,0,0,0,0,0,0,0,0,0,0,0,0,0,0,0,0,0,0,0,0,0,0,0,0,0,0,0,0,0,0,0,0,0,0,0,0,0,0,0],"sum_hessian":[3.3351285E4,1.02066875E4,2.3144598E4,1.5560573E3,8.650631E3,2.2619754E4,5.2484515E2,1.1089841E3,4.4707312E2,5.627299E1,8.594357E3,2.0784076E4,1.8356771E3,4.1184912E2,1.1299602E2,8.08248E2,3.0073608E2,8.588456E3,5.9018307E0,1.9817713E4,9.663639E2,1.3215264E3,5.1415076E2,2.9893336E0,4.0885977E2,1.3295923E2,6.7528876E2,2.7438736E2,2.6348743E1,1.2932149E0,8.587163E3,1.908089E1,9.4728296E2,1.259672E3,6.185436E1,4.4907233E2,6.507842E1,6.647166E2,1.0572172E1,3.8118893E1,2.3626846E2,1.9045755E1,7.3029885E0,5.9899116E0,1.309098E1,1.2409897E3,1.8682308E1,3.435819E1,2.7496172E1,2.8850245E1,4.2022208E2,5.4060006E0,6.593106E2,2.0607502E1,1.751139E1,2.1529514E2,2.097332E1,1.2050447E1,1.0405326E0,1.0661995E2,1.1343698E3,3.7533495E0,1.4928959E1,3.8709064E0,2.3625267E1,4.731379E0,4.154907E2,4.180283E0,6.551303E2,2.6604524E0,1.7947048E1,1.7187416E1,3.7859042E0,9.471928E1,1.1900676E1,2.7296236E1,1.1070736E3,5.7135333E2,8.377698E1,1.3135919E1,4.81113E0,2.444962E0,1.3409421E0,4.0815773E0,7.8190985E0,2.783891E0,2.4512346E1,7.948463E1,4.2923484E0,1.6623286E0,1.147359E1],"tree_param":{"num_deleted":"0","num_feature":"41","num_nodes":"91","size_leaf_vector":"1"}},{"base_weights":[2.0781258E-2,-5.5237406E-1,8.857121E-1,6.594725E-2,-5.6707275E-1,1.0814422E0,-5.446636E-1,-1.7026444E-1,1.2785827E0,-1.7022175E-1,-1.5091221E-1,7.475059E-1,1.3545421E0,-1.6985111E-1,2.1823771E-1,-1.1556482E-1,1.2972074E0,1.2599623E0,-1.700735E-1,1.3670831E0,-1.6606449E-1,8.718853E-1,-1.6250083E-1,3.960912E-1,9.136009E-1,-1.6825187E-1,1.2967539E0,-1.172836E-1,4.103219E-1,4.0333495E-1,-1.4676861E-1,-1.3907932E-1,3.489797E-1,1.317288E0,-1.6605318E-1,1.3201687E0,-1.5631054E-1,1.3260759E0,8.529838E-1,-1.0902736E-1,1.3268243E0,-1.4898728E-1,1.0855966E0,4.039744E-1,3.7513623E-1,2.4517594E-1,3.9726457E-1],"categories":[],"categories_nodes":[],"categories_segments":[],"categories_sizes":[],"default_left":[0,0,0,0,0,0,0,0,0,0,0,0,0,0,0,0,0,0,0,0,0,0,0,0,0,0,0,0,0,0,0,0,0,0,0,0,0,0,0,0,0,0,0,0,0,0,0],"id":10,"left_children":[1,3,5,7,9,11,13,-1,15,-1,-1,17,19,-1,21,-1,23,25,-1,27,-1,29,-1,-1,31,-1,33,-1,-1,-1,-1,-1,-1,35,-1,37,-1,39,41,-1,43,-1,45,-1,-1,-1,-1],"loss_changes":[1.6558936E4,1.8262402E2,3.72771E3,3.5976624E2,1.3232422E-1,1.0669717E3,2.6426147E1,0E0,5.4790955E0,0E0,0E0,3.5509788E3,1.5488184E2,0E0,2.2662727E1,0E0,2.0373535E-1,2.5479102E2,0E0,7.919922E0,0E0,1.635198E1,0E0,0E0,4.762904E0,0E0,1.41979E2,0E0,0E0,0E0,0E0,0E0,0E0,2.0161621E1,0E0,9.001953E0,0E0,5.063965E0,1.5811863E1,0E0,3.7827148E0,0E0,1.5949974E0,0E0,0E0,0E0,0E0],"parents":[2147483647,0,0,1,1,2,2,3,3,4,4,5,5,6,6,8,8,11,11,12,12,14,14,16,16,17,17,19,19,21,21,24,24,26,26,33,33,35,35,37,37,38,38,40,40,42,42],"right_children":[2,4,6,8,10,12,14,-1,16,-1,-1,18,20,-1,22,-1,24,26,-1,28,-1,30,-1,-1,32,-1,34,-1,-1,-1,-1,-1,-1,36,-1,38,-1,40,42,-1,44,-1,46,-1,-1,-1,-1],"split_conditions":[-2.159319E-1,1.3224292E-3,2.4210045E-3,-2.9234967E-1,8.50795E-1,1.3505594E-3,-3.394082E-1,-1.7026444E-1,-2.5568392E-2,-1.7022175E-1,-1.5091221E-1,1.3224292E-3,1.9657908E-1,-1.6985111E-1,1.9657908E-1,-1.1556482E-1,2.216172E-2,-4.610915E-1,-1.700735E-1,-1.8766181E-1,-1.6606449E-1,3.8229665E-3,-1.6250083E-1,3.960912E-1,1.6577686E-1,-1.6825187E-1,3.6203117E0,-1.172836E-1,4.103219E-1,4.0333495E-1,-1.4676861E-1,-1.3907932E-1,3.489797E-1,-4.5876554E-1,-1.6605318E-1,3.4971015E0,-1.5631054E-1,-2.5398761E-2,-6.47183E-3,-1.0902736E-1,-4.0203103E-1,-1.4898728E-1,-4.0203163E-1,4.039744E-1,3.7513623E-1,2.4517594E-1,3.9726457E-1],"split_indices":[0,16,29,0,14,16,30,0,5,0,0,16,0,0,0,0,5,2,0,10,0,23,0,0,5,0,0,0,0,0,0,0,0,1,0,0,0,5,5,0,23,0,23,0,0,0,0],"split_type":[0,0,0,0,0,0,0,0,0,0,0,0,0,0,0,0,0,0,0,0,0,0,0,0,0,0,0,0,0,0,0,0,0,0,0,0,0,0,0,0,0,0,0,0,0,0,0],"sum_hessian":[3.3400492E4,2.0088803E4,1.331169E4,4.663797E2,1.9622424E4,1.1709611E4,1.602079E3,3.0669208E2,1.5968765E2,1.9513062E4,1.0936126E2,5.269727E3,6.439885E3,1.5584042E3,4.3674736E1,1.5498725E0,1.5813777E2,3.7915457E3,1.4781813E3,6.3981167E3,4.176812E1,2.3399706E1,2.0275028E1,1.4685403E2,1.1283735E1,7.4813354E1,3.7167322E3,2.1662793E0,6.39595E3,1.7378365E1,6.0213423E0,1.600146E0,9.683589E0,3.6762217E3,4.0510635E1,3.6707512E3,5.4702663E0,3.623102E3,4.764917E1,1.389768E0,3.6217124E3,6.8383594E0,4.081081E1,2.8641313E3,7.57581E2,2.1291718E1,1.9519094E1],"tree_param":{"num_deleted":"0","num_feature":"41","num_nodes":"47","size_leaf_vector":"1"}},{"base_weights":[2.5432782E-2,-1.813559E-1,1.3733046E0,-4.2082757E-1,1.071101E-1,1.1815768E-1,4.120584E-1,-4.421111E-1,1.0901363E0,1.3605311E0,-1.6411777E-1,-4.5394623E-1,1.394682E0,4.1098598E-1,-1.6376185E-1,1.4254596E0,5.709778E-1,1.5029235E0,-2.875643E-1,1.7993765E0,-4.609197E-1,-1.3784413E-1,1.4562598E0,1.4869572E0,1.3266854E0,-9.285811E-2,1.1967256E0,2.5838838E0,1.3651062E0,1.1098423E0,-4.042087E-1,1.8591881E0,-9.5914215E-2,-6.7097604E-2,-4.8472074E-1,1.2559669E-1,4.4010538E-1,1.572065E0,1.4076858E0,2.3241116E-1,1.3756212E0,4.4649664E-1,-3.852222E-1,1.3768312E0,-1.3572535E-1,8.352583E-1,2.8603983E0,-3.9145526E-1,1.3880926E0,-4.8229948E-1,1.56006E0,-4.4966424E-1,7.9464006E-1,4.2782304E-1,2.2199678E0,-3.9189756E-1,1.2501714E0,-5.054998E-1,-8.3800815E-3,1.5372454E0,9.0244645E-1,-3.7026796E-2,1.4119819E0,-7.754912E-2,3.8306892E-1,4.1505688E-1,5.4137814E-1,-4.9404252E-1,4.348536E-1,4.2836264E-1,9.784915E-3,2.3121924E0,-1.4626957E-1,4.103063E-1,2.9695203E0,-1.480528E-1,5.6185227E-2,1.4010482E0,8.270256E-1,7.4513334E-1,-1.6637321E-1,2.3757463E0,1.4686877E0,-1.7893592E-1,-5.241242E-1,-3.8465318E-1,1.2654656E0,7.1276057E-1,1.0647227E0,1.3754946E0,-5.2121615E-1,6.645384E-1,9.603772E-1,-5.095002E-1,8.3886313E-1,-1.6029233E-1,1.0439014E0,4.1265836E-1,1.6944679E0,4.1350982E-1,1.5131332E0,-4.468034E-1,7.477517E-1,-1.3347413E-1,3.9950424E-1,-1.5712126E-1,-2.3501329E-1,-1.2497411E-1,8.76582E-1,2.4728042E-1,7.7218336E-1,9.170177E-1,3.534359E-1,1.7825114E0,4.1415474E-1,-1.3804932E-1,3.919219E-1,2.461061E0,9.13089E-1,4.3448636E-1,2.1577418E0,2.579927E0,-3.6013776E-1,-5.378576E-1,9.601954E-1,3.6855176E-1,-1.6697788E-1,9.9045753E-1,4.1172546E-1,1.1581121E-1,3.9119658E-1,4.2096987E-1,1.04534686E-1,-3.0369842E-1,-5.6127965E-1,1.0257766E0,-4.6675307E-1,-5.185906E-1,-1.4145042E-1,-2.1650156E-1,1.6475551E0,9.363033E-1,-2.9858133E-1,4.2299426E-1,-3.108655E-1,2.8434587E0,1.5887952E0,1.7437594E0,4.1517293E-1,-1.4641829E-1,-4.0854976E-2,-1.1786612E-1,4.4335386E-1,1.7458776E-2,-1.2344162E-1,3.589011E-1,4.429552E-1,3.999084E-1,2.1211667E0,9.211934E-1,2.1593127E0,3.4471068E-1,3.2071035E-2,7.5503165E-1,3.840522E-1,3.070628E0,4.2731592E-1,7.6152426E-1,-3.6772352E-1,-5.5719835E-1,-1.03229634E-1,-1.4398508E-1,1.5896037E0,4.5761058E-1,4.1269556E-1,2.4505098E-1,-9.822014E-2,-1.6894117E-1,-7.1644476E-3,-1.5505007E-1,3.6603594E-1,1.6731343E-1,-1.641001E-1,-1.5783669E-1,4.3149236E-1,4.0619504E-1,-1.6323757E-1,-1.5858416E-1,3.5254848E-1,8.7373525E-1,2.4174279E-1,-1.5733868E-1,4.0870383E-1,-1.19377136E-1,6.5236904E-2,3.0384248E-1,-1.4261477E-1,9.3219686E-1,3.6598203E-1,4.473212E-1,6.8159676E-1,6.122188E-1,4.3125758E-1,-1.05399154E-1,3.2451385E-1,8.4383494E-1,4.0016258E-1,7.254499E-1,3.9632466E-1,9.722509E-1,3.702035E-1,-1.3291335E-1,-3.8902592E-2,-1.6778825E-1,2.3084013E-2,-1.5941386E-1,4.0948454E-1,7.192746E-1,4.2024645E-1,-1.7616688E-3,2.286541E-1],"categories":[],"categories_nodes":[],"categories_segments":[],"categories_sizes":[],"default_left":[0,0,0,0,0,0,0,0,0,0,0,0,0,0,0,0,0,0,0,0,0,0,0,0,0,0,0,0,0,0,0,0,0,0,0,0,0,0,0,0,0,0,0,0,0,0,0,0,0,0,0,0,0,0,0,0,0,0,0,0,0,0,0,0,0,0,0,0,0,0,0,0,0,0,0,0,0,0,0,0,0,0,0,0,0,0,0,0,0,0,0,0,0,0,0,0,0,0,0,0,0,0,0,0,0,0,0,0,0,0,0,0,0,0,0,0,0,0,0,0,0,0,0,0,0,0,0,0,0,0,0,0,0,0,0,0,0,0,0,0,0,0,0,0,0,0,0,0,0,0,0,0,0,0,0,0,0,0,0,0,0,0,0,0,0,0,0,0,0,0,0,0,0,0,0,0,0,0,0,0,0,0,0,0,0,0,0,0,0,0,0,0,0,0,0,0,0,0,0,0,0,0,0,0,0,0,0,0,0,0,0,0,0,0,0,0,0,0,0,0,0],"id":11,"left_children":[1,3,5,7,9,-1,-1,11,13,15,17,19,21,-1,-1,23,25,27,29,31,33,-1,35,37,39,41,43,45,47,49,51,53,-1,55,57,-1,-1,59,61,63,65,-1,67,69,-1,71,73,75,77,79,81,83,85,-1,87,89,91,93,95,97,-1,-1,99,101,-1,-1,103,105,107,-1,-1,109,-1,-1,111,-1,-1,113,115,-1,-1,117,119,121,123,125,127,-1,129,131,133,135,-1,137,139,141,143,-1,145,-1,147,149,151,-1,-1,-1,153,-1,155,-1,-1,-1,-1,157,-1,-1,-1,159,161,-1,163,165,167,169,171,-1,-1,173,-1,-1,-1,-1,-1,175,177,179,181,183,185,187,189,191,193,-1,195,197,199,201,-1,-1,-1,-1,-1,-1,-1,-1,203,-1,205,-1,207,-1,-1,-1,-1,209,-1,-1,211,213,215,-1,217,219,-1,-1,-1,-1,-1,-1,-1,-1,-1,-1,-1,-1,-1,-1,-1,-1,-1,-1,-1,-1,-1,-1,-1,-1,-1,-1,-1,-1,-1,-1,-1,-1,-1,-1,-1,-1,-1,-1,-1,-1,-1,-1,-1,-1,-1,-1,-1],"loss_changes":[8.923013E3,1.9173875E3,3.90625E-1,4.8819775E2,4.2805913E3,0E0,0E0,3.257556E2,9.731685E1,1.1401514E2,2.1307268E3,2.3434717E2,1.162941E1,0E0,0E0,1.0596191E1,7.150545E1,1.02821655E2,1.571585E3,6.431473E0,1.3884277E2,0E0,4.2559814E-1,6.3339844E0,4.2690674E1,3.9555374E1,2.692276E1,3.6100586E1,2.6193604E1,5.332419E2,4.8519543E2,3.855713E0,0E0,3.6225504E2,1.3828271E2,0E0,0E0,2.5497314E1,4.551758E0,1.1619452E1,4.317505E0,0E0,6.6367073E0,5.4477386E0,0E0,2.5122078E1,7.067444E0,6.231519E-1,3.401001E0,3.66475E1,3.9689697E1,1.7271753E2,1.8115012E2,0E0,1.5620575E0,1.5592007E2,1.892463E2,7.242578E1,9.3682846E1,1.2674438E1,0E0,0E0,1.7114258E-1,8.98395E0,0E0,0E0,7.494315E0,3.691864E-1,3.7358384E0,0E0,0E0,2.0618439E-1,0E0,0E0,6.211426E0,0E0,0E0,2.3302002E0,1.0843192E1,0E0,0E0,4.833252E0,4.2349854E0,9.261203E2,1.3756201E2,2.6647045E1,5.487152E0,0E0,2.2952461E-1,8.378372E-1,5.350067E0,5.3638924E1,0E0,4.458618E1,3.457801E1,7.7933685E1,3.7105537E1,0E0,3.1291748E1,0E0,2.2158508E0,1.928668E-1,8.198746E0,0E0,0E0,0E0,4.5835975E-1,0E0,3.3290863E-1,0E0,0E0,0E0,0E0,1.4054184E0,0E0,0E0,0E0,3.1226807E0,7.744255E-1,0E0,8.785744E-1,6.0372192E1,3.9137695E1,5.5943115E1,5.6954586E1,0E0,0E0,1.3485779E1,0E0,0E0,0E0,0E0,0E0,2.9421701E0,5.193939E-1,3.0283691E1,2.9498754E0,1.9274487E2,1.9530833E2,8.560906E0,2.1947529E1,3.6553223E1,2.343671E1,0E0,4.0849195E0,6.3079834E0,1.47960205E1,1.7892303E0,0E0,0E0,0E0,0E0,0E0,0E0,0E0,0E0,2.525708E0,0E0,3.962654E0,0E0,5.232071E0,0E0,0E0,0E0,0E0,2.0785645E1,0E0,0E0,3.1030792E1,8.519531E0,1.7990837E2,0E0,3.2567596E0,4.2892966E0,0E0,0E0,0E0,0E0,0E0,0E0,0E0,0E0,0E0,0E0,0E0,0E0,0E0,0E0,0E0,0E0,0E0,0E0,0E0,0E0,0E0,0E0,0E0,0E0,0E0,0E0,0E0,0E0,0E0,0E0,0E0,0E0,0E0,0E0,0E0,0E0,0E0,0E0,0E0,0E0,0E0,0E0,0E0,0E0,0E0,0E0,0E0],"parents":[2147483647,0,0,1,1,2,2,3,3,4,4,7,7,8,8,9,9,10,10,11,11,12,12,15,15,16,16,17,17,18,18,19,19,20,20,22,22,23,23,24,24,25,25,26,26,27,27,28,28,29,29,30,30,31,31,33,33,34,34,37,37,38,38,39,39,40,40,42,42,43,43,45,45,46,46,47,47,48,48,49,49,50,50,51,51,52,52,54,54,55,55,56,56,57,57,58,58,59,59,62,62,63,63,66,66,67,67,68,68,71,71,74,74,77,77,78,78,81,81,82,82,83,83,84,84,85,85,86,86,88,88,89,89,90,90,91,91,93,93,94,94,95,95,96,96,98,98,100,100,101,101,102,102,106,106,108,108,113,113,117,117,118,118,120,120,121,121,122,122,123,123,124,124,127,127,133,133,134,134,135,135,136,136,137,137,138,138,139,139,140,140,141,141,142,142,144,144,145,145,146,146,147,147,156,156,158,158,160,160,165,165,168,168,169,169,170,170,172,172,173,173],"right_children":[2,4,6,8,10,-1,-1,12,14,16,18,20,22,-1,-1,24,26,28,30,32,34,-1,36,38,40,42,44,46,48,50,52,54,-1,56,58,-1,-1,60,62,64,66,-1,68,70,-1,72,74,76,78,80,82,84,86,-1,88,90,92,94,96,98,-1,-1,100,102,-1,-1,104,106,108,-1,-1,110,-1,-1,112,-1,-1,114,116,-1,-1,118,120,122,124,126,128,-1,130,132,134,136,-1,138,140,142,144,-1,146,-1,148,150,152,-1,-1,-1,154,-1,156,-1,-1,-1,-1,158,-1,-1,-1,160,162,-1,164,166,168,170,172,-1,-1,174,-1,-1,-1,-1,-1,176,178,180,182,184,186,188,190,192,194,-1,196,198,200,202,-1,-1,-1,-1,-1,-1,-1,-1,204,-1,206,-1,208,-1,-1,-1,-1,210,-1,-1,212,214,216,-1,218,220,-1,-1,-1,-1,-1,-1,-1,-1,-1,-1,-1,-1,-1,-1,-1,-1,-1,-1,-1,-1,-1,-1,-1,-1,-1,-1,-1,-1,-1,-1,-1,-1,-1,-1,-1,-1,-1,-1,-1,-1,-1,-1,-1,-1,-1,-1,-1],"split_conditions":[3.9387977E-1,-4.005659E-1,-4.0203136E-1,3.473014E0,-2.1925256E-1,1.1815768E-1,4.120584E-1,3.2010671E-1,1.456756E-1,-9.1657355E-2,-4.199974E-1,1.3224292E-3,-4.031735E-1,4.1098598E-1,-1.6376185E-1,-3.7485185E-1,-2.1930629E-1,-3.7485185E-1,-3.7485185E-1,-6.803239E-2,-4.1644815E-1,-1.3784413E-1,-3.9551535E-1,1.0112157E-1,-3.6905715E-1,-3.7485185E-1,1.2633243E-2,-3.9665446E-1,-3.6905715E-1,-4.6732172E-1,3.4971015E0,-4.610915E-1,-9.5914215E-2,-3.5320824E-1,-6.8001404E-2,1.2559669E-1,4.4010538E-1,-1.4844589E-1,-3.9665446E-1,-3.6934265E-1,-1.636201E-1,4.4649664E-1,6.390777E-1,-2.1925476E-1,-1.3572535E-1,-4.1644198E-1,1.3224292E-3,-3.5347143E-1,-3.394082E-1,-3.1489156E-2,-7.8377336E-2,-3.4743676E-1,-4.6732172E-1,4.2782304E-1,-2.2578202E-2,2.3812903E-3,-1.8875462E-1,-2.0590138E-1,-1.6594766E-1,-1.8875462E-1,9.0244645E-1,-3.7026796E-2,3.8229665E-3,-3.0931784E-2,3.8306892E-1,4.1505688E-1,-3.1524938E-2,-1.5656912E-1,-4.679928E-1,4.2836264E-1,9.784915E-3,1.3224292E-3,-1.4626957E-1,4.103063E-1,-3.7509084E-1,-1.480528E-1,5.6185227E-2,2.0089474E0,1.9657908E-1,7.4513334E-1,-1.6637321E-1,-6.794479E-2,-6.792598E-2,-4.610915E-1,6.504174E-2,-3.1385597E-2,3.6203117E0,7.1276057E-1,-6.47183E-3,3.6803875E-2,-1.8875462E-1,-1.117204E-1,9.603772E-1,3.375404E-1,-3.4743702E-1,-4.7177032E-1,-3.1465612E-2,4.1265836E-1,-7.8377336E-2,4.1350982E-1,3.011082E0,-1.7524764E-2,-4.5876554E-1,-1.3347413E-1,3.9950424E-1,-1.5712126E-1,-9.570184E-2,-1.2497411E-1,3.272629E0,2.4728042E-1,7.7218336E-1,9.170177E-1,3.534359E-1,1.3224292E-3,4.1415474E-1,-1.3804932E-1,3.919219E-1,6.504174E-2,-3.1497933E-2,4.3448636E-1,-6.76636E-2,-4.6430188E-1,-2.9234967E-1,2.0089474E0,-3.6905715E-1,3.6855176E-1,-1.6697788E-1,-4.968336E-1,4.1172546E-1,1.1581121E-1,3.9119658E-1,4.2096987E-1,1.04534686E-1,1.3340123E-3,-4.0202537E-1,-4.031735E-1,1.3373216E-3,-1.15448445E-1,1.3621425E-3,-1.5669635E-1,-4.6430188E-1,-4.031735E-1,-8.7690614E-2,4.2299426E-1,-1.2224674E-1,-5.9512526E-2,-2.8661534E-1,-1.3739276E-1,4.1517293E-1,-1.4641829E-1,-4.0854976E-2,-1.1786612E-1,4.4335386E-1,1.7458776E-2,-1.2344162E-1,3.589011E-1,3.3818593E0,3.999084E-1,-1.3035505E-1,9.211934E-1,-1.8766181E-1,3.4471068E-1,3.2071035E-2,7.5503165E-1,3.840522E-1,2.0089474E0,4.2731592E-1,7.6152426E-1,-4.0203103E-1,-3.7448508E-1,-4.1644815E-1,-1.4398508E-1,1.3211292E-1,-1.4609585E-3,4.1269556E-1,2.4505098E-1,-9.822014E-2,-1.6894117E-1,-7.1644476E-3,-1.5505007E-1,3.6603594E-1,1.6731343E-1,-1.641001E-1,-1.5783669E-1,4.3149236E-1,4.0619504E-1,-1.6323757E-1,-1.5858416E-1,3.5254848E-1,8.7373525E-1,2.4174279E-1,-1.5733868E-1,4.0870383E-1,-1.19377136E-1,6.5236904E-2,3.0384248E-1,-1.4261477E-1,9.3219686E-1,3.6598203E-1,4.473212E-1,6.8159676E-1,6.122188E-1,4.3125758E-1,-1.05399154E-1,3.2451385E-1,8.4383494E-1,4.0016258E-1,7.254499E-1,3.9632466E-1,9.722509E-1,3.702035E-1,-1.3291335E-1,-3.8902592E-2,-1.6778825E-1,2.3084013E-2,-1.5941386E-1,4.0948454E-1,7.192746E-1,4.2024645E-1,-1.7616688E-3,2.286541E-1],"split_indices":[15,0,23,38,27,0,0,9,23,15,4,16,0,0,0,0,27,0,0,37,25,0,19,40,0,0,3,0,0,1,0,2,0,30,37,0,0,11,0,4,10,0,0,27,0,25,16,30,30,5,3,17,1,0,5,29,10,15,11,10,0,0,23,5,0,0,5,13,1,0,0,16,0,0,1,0,0,0,0,0,0,37,37,2,33,5,0,0,5,5,10,34,0,8,17,2,5,0,3,0,35,34,1,0,0,0,7,0,0,0,0,0,0,16,0,0,0,33,5,0,37,1,0,0,0,0,0,36,0,0,0,0,0,16,23,0,16,14,16,13,1,0,20,0,6,37,36,10,0,0,0,0,0,0,0,0,0,0,1,0,10,0,0,0,0,0,0,0,23,19,25,0,0,5,0,0,0,0,0,0,0,0,0,0,0,0,0,0,0,0,0,0,0,0,0,0,0,0,0,0,0,0,0,0,0,0,0,0,0,0,0,0,0,0,0,0,0,0,0,0,0],"split_type":[0,0,0,0,0,0,0,0,0,0,0,0,0,0,0,0,0,0,0,0,0,0,0,0,0,0,0,0,0,0,0,0,0,0,0,0,0,0,0,0,0,0,0,0,0,0,0,0,0,0,0,0,0,0,0,0,0,0,0,0,0,0,0,0,0,0,0,0,0,0,0,0,0,0,0,0,0,0,0,0,0,0,0,0,0,0,0,0,0,0,0,0,0,0,0,0,0,0,0,0,0,0,0,0,0,0,0,0,0,0,0,0,0,0,0,0,0,0,0,0,0,0,0,0,0,0,0,0,0,0,0,0,0,0,0,0,0,0,0,0,0,0,0,0,0,0,0,0,0,0,0,0,0,0,0,0,0,0,0,0,0,0,0,0,0,0,0,0,0,0,0,0,0,0,0,0,0,0,0,0,0,0,0,0,0,0,0,0,0,0,0,0,0,0,0,0,0,0,0,0,0,0,0,0,0,0,0,0,0,0,0,0,0,0,0,0,0,0,0,0,0],"sum_hessian":[3.2011826E4,2.7754615E4,4.25721E3,1.5164916E4,1.2589699E4,1.3731104E0,4.255837E3,1.4954967E4,2.099494E2,2.2389338E3,1.0350766E4,1.4859972E4,9.4995224E1,1.7942401E2,3.0525389E1,2.0680625E3,1.7087138E2,7.1287085E2,9.637895E3,4.505311E1,1.4814919E4,2.8457384E0,9.214948E1,1.2658685E3,8.0219385E2,8.3325554E1,8.754582E1,7.860324E1,6.3426764E2,7.418595E2,8.896035E3,4.3935665E1,1.1174419E0,8.445441E2,1.3970374E4,1.3552183E0,9.0794266E1,6.013805E2,6.6448804E2,3.458446E1,7.676094E2,1.2364502E1,7.096105E1,7.9075035E1,8.470788E0,1.1281541E1,6.73217E1,7.9857955E0,6.2628186E2,1.6351979E2,5.783397E2,8.571657E3,3.2437808E2,2.2217094E1,2.171857E1,6.780575E2,1.6648662E2,1.338637E4,5.840042E2,5.891659E2,1.2214553E1,1.7817006E0,6.6270636E2,2.7383821E1,7.2006397E0,7.597549E2,7.8545294E0,6.2998943E1,7.9621067E0,7.6122185E1,2.952849E0,4.976902E0,6.304639E0,5.508127E0,6.1813572E1,6.9138803E0,1.0719153E0,6.106836E2,1.5598272E1,3.0962038E0,1.6042358E2,5.5740463E1,5.2259924E2,1.8497115E3,6.7219453E3,9.260646E1,2.3177164E2,1.8205183E1,3.5133874E0,4.557325E1,6.3248425E2,1.2908221E2,3.7404396E1,1.3347273E4,3.9096916E1,5.1107126E2,7.293295E1,2.9523697E2,2.9392892E2,5.0838107E2,1.543253E2,1.9235939E1,8.147883E0,3.6884298E0,4.1660995E0,5.5602745E1,7.3961997E0,2.739205E0,5.222902E0,1.3652432E0,3.6116588E0,5.827063E1,3.542939E0,2.6808416E1,5.838751E2,4.243661E0,1.1354611E1,5.202342E1,3.7170465E0,5.105849E2,1.2014361E1,1.1318541E2,1.7365262E3,6.660954E3,6.0991623E1,8.327923E0,8.4278534E1,6.777136E1,1.6400027E2,1.5969663E0,1.9164212E0,4.4018143E1,1.5551107E0,9.970944E1,5.327748E2,9.791103E1,3.1171185E1,1.3025158E4,3.221155E2,1.7279278E1,2.1817636E1,5.658627E1,4.54485E2,5.738568E1,1.5547271E1,2.257377E1,2.7135516E2,5.0932133E1,1.0339317E2,1.6476261E1,2.7596765E0,3.3601434E0,4.78774E0,3.030624E0,4.365576E0,1.9937835E0,3.2291183E0,1.3640359E1,1.3168057E1,1.4187014E1,3.7836403E1,2.5464902E0,1.1705564E0,7.200572E0,4.8137894E0,7.828453E1,3.4900883E1,3.6619244E0,1.7328643E3,6.376903E3,2.840509E2,1.8621447E1,4.237018E1,2.9353745E1,3.8417618E1,1.3722519E0,9.833719E1,5.308918E2,1.8830124E0,1.07693405E1,8.714169E1,1.8320947E0,2.933909E1,1.2975947E4,4.9210155E1,6.78341E1,2.542814E2,1.4620462E1,2.658816E0,7.734681E0,1.4082955E1,1.272506E1,4.386121E1,3.8130823E2,7.317677E1,1.1487103E0,1.4398561E1,1.8631693E1,3.9420776E0,2.401819E2,3.1173265E1,2.2981718E1,2.7950415E1,1.6399024E0,1.5892159E0,5.6403837E0,7.5276737E0,2.7468904E1,1.03675E1,7.094513E1,7.339396E0,1.3157014E3,4.171628E2,6.3560146E3,2.0888445E1,2.2041234E2,6.3638554E1,5.808755E0,3.656142E1,1.2029072E1,1.7324673E1],"tree_param":{"num_deleted":"0","num_feature":"41","num_nodes":"221","size_leaf_vector":"1"}},{"base_weights":[1.6333407E-2,-3.7719867E-1,1.3425381E0,9.015009E-1,-5.3666556E-1,1.3694106E0,-1.5497254E-1,1.2132913E0,-1.678792E-1,-5.5623263E-1,-4.4655558E-1,1.37193E0,-1.5296088E-1,-1.6716194E-1,1.290975E0,-5.5795884E-1,-2.3198633E-1,1.2764285E0,-5.5654097E-1,8.929653E-1,1.3769599E0,-4.6164462E-1,1.3331871E0,-5.58174E-1,1.9703642E-1,7.628882E-1,-5.435115E-1,1.4041916E0,-1.6177803E-1,-5.5892336E-1,-1.1952167E-1,1.2396817E0,-4.708636E-1,-1.4611292E-1,4.1349143E-1,-1.6605479E-1,-2.897361E-1,4.8103172E-1,1.3724215E0,-2.9712066E-1,-5.583308E-1,3.665974E-1,-1.3068645E-1,4.341859E-1,-4.1029805E-1,6.0973015E-2,-1.6698767E-1,-1.3929771E-1,4.316153E-1,-1.677567E-1,4.1692827E-2,5.0827533E-1,-4.3038872E-1,-1.2481534E-1,1.3259265E0,-1.5862341E-1,2.5829641E-2,-4.7283646E-1,5.062813E-1,1.2021354E0,-1.6026759E-1,1.3645817E0,5.76889E0,2.6070222E-1,-1.5527643E-1,-5.586523E-1,-4.7684327E-1,-1.5035556E-1,4.8052214E-2,9.1561206E-2,-1.5916473E-1,-1.14744015E-1,4.1913787E-1,-1.5834017E-1,-8.109954E-2,2.0344667E-1,2.6457863E-2,1.3716964E-1,1.331026E0,-3.1168553E-1,2.4402721E-1,4.1412386E-1,1.270052E0,2.3523803E0,1.9831486E-1,-1.6776821E-1,-5.2336735E-1,4.9028748E-1,-1.6603827E-1,4.4579096E-2,-8.6664215E-2,-1.3716902E-1,2.9356217E-1,1.3607428E0,3.9948817E-2,-3.7294343E-1,6.296849E-2,1.0592773E0,-4.9393408E-2,4.082606E-1,1.0408479E0,7.1160805E-1,-1.6796458E-1,4.2250437E-1,1.5966254E-1,-7.770118E-2,-1.5784486E-1,4.1199586E-1,3.9049447E-2,9.037639E-2,-1.10870354E-1,-3.954798E-2,3.8629434E-1],"categories":[],"categories_nodes":[],"categories_segments":[],"categories_sizes":[],"default_left":[0,0,0,0,0,0,0,0,0,0,0,0,0,0,0,0,0,0,0,0,0,0,0,0,0,0,0,0,0,0,0,0,0,0,0,0,0,0,0,0,0,0,0,0,0,0,0,0,0,0,0,0,0,0,0,0,0,0,0,0,0,0,0,0,0,0,0,0,0,0,0,0,0,0,0,0,0,0,0,0,0,0,0,0,0,0,0,0,0,0,0,0,0,0,0,0,0,0,0,0,0,0,0,0,0,0,0,0,0,0,0,0,0],"id":12,"left_children":[1,3,5,7,9,11,-1,13,-1,15,17,19,-1,-1,21,23,25,27,29,31,33,35,37,39,41,43,45,47,-1,49,51,53,55,-1,-1,-1,57,59,61,63,65,-1,-1,-1,67,-1,-1,-1,-1,-1,-1,-1,69,-1,71,-1,-1,73,75,77,79,81,83,-1,-1,85,87,-1,-1,-1,-1,-1,-1,-1,89,-1,-1,91,93,95,97,-1,99,-1,-1,-1,101,-1,-1,-1,-1,-1,-1,103,-1,105,-1,107,109,-1,111,-1,-1,-1,-1,-1,-1,-1,-1,-1,-1,-1,-1],"loss_changes":[1.6527215E4,4.9801147E3,3.6273633E2,1.2344128E3,3.8035645E1,3.4520508E1,0E0,3.0773755E2,0E0,9.854004E0,7.357741E2,1.5958008E1,0E0,0E0,1.5884033E2,2.9926758E0,3.021798E1,5.4820465E1,3.7301025E0,3.6987694E1,1.8365234E1,6.4576244E-1,6.917212E1,5.595703E-1,4.289142E0,1.9339672E1,8.3599854E-1,1.47323E1,0E0,7.5024414E-1,1.2595077E1,9.356186E0,5.71944E-1,0E0,0E0,0E0,3.1363113E0,4.341816E1,6.0931152E1,3.7357955E0,1.9824219E-1,0E0,0E0,0E0,5.6666493E-1,0E0,0E0,0E0,0E0,0E0,0E0,0E0,1.5443282E0,0E0,7.691948E0,0E0,0E0,3.1625485E-1,2.4198401E-1,5.872963E0,3.1587257E0,1.2307129E0,2.9149635E1,0E0,0E0,6.4941406E-2,1.3274633E1,0E0,0E0,0E0,0E0,0E0,0E0,0E0,1.972481E-1,0E0,0E0,3.38693E0,1.2155609E0,1.2628386E0,3.4686472E0,0E0,4.79776E0,0E0,0E0,0E0,3.289808E1,0E0,0E0,0E0,0E0,0E0,0E0,7.5637054E-1,0E0,4.491701E-1,0E0,9.371052E-1,1.3976288E0,0E0,2.5919716E1,0E0,0E0,0E0,0E0,0E0,0E0,0E0,0E0,0E0,0E0,0E0,0E0],"parents":[2147483647,0,0,1,1,2,2,3,3,4,4,5,5,7,7,9,9,10,10,11,11,14,14,15,15,16,16,17,17,18,18,19,19,20,20,21,21,22,22,23,23,24,24,25,25,26,26,27,27,29,29,30,30,31,31,32,32,36,36,37,37,38,38,39,39,40,40,44,44,52,52,54,54,57,57,58,58,59,59,60,60,61,61,62,62,65,65,66,66,74,74,77,77,78,78,79,79,80,80,82,82,86,86,93,93,95,95,97,97,98,98,100,100],"right_children":[2,4,6,8,10,12,-1,14,-1,16,18,20,-1,-1,22,24,26,28,30,32,34,36,38,40,42,44,46,48,-1,50,52,54,56,-1,-1,-1,58,60,62,64,66,-1,-1,-1,68,-1,-1,-1,-1,-1,-1,-1,70,-1,72,-1,-1,74,76,78,80,82,84,-1,-1,86,88,-1,-1,-1,-1,-1,-1,-1,90,-1,-1,92,94,96,98,-1,100,-1,-1,-1,102,-1,-1,-1,-1,-1,-1,104,-1,106,-1,108,110,-1,112,-1,-1,-1,-1,-1,-1,-1,-1,-1,-1,-1,-1],"split_conditions":[7.427765E-1,-2.193117E-1,-4.005659E-1,-4.005659E-1,6.504174E-2,-1.5844691E-1,-1.5497254E-1,-4.012178E-1,-1.678792E-1,5.4623306E-1,-4.6128204E-1,-1.4673445E-1,-1.5296088E-1,-1.6716194E-1,1.3373216E-3,6.641016E0,2.3813972E-1,-4.005659E-1,2.3481253E-1,-1.5350723E-1,-2.4168272E-1,-3.5066807E-1,-4.968093E-1,-2.1931104E-1,-4.713482E-1,-6.8001404E-2,-7.8711994E-2,-3.152554E-2,-1.6177803E-1,6.5412074E-2,-4.96825E-1,2.9518574E-1,-2.3078892E-1,-1.4611292E-1,4.1349143E-1,-1.6605479E-1,-3.1465612E-2,-3.3613303E-1,-3.235401E-1,-1.5669635E-1,1.6980332E0,3.665974E-1,-1.3068645E-1,4.341859E-1,3.268364E-1,6.0973015E-2,-1.6698767E-1,-1.3929771E-1,4.316153E-1,-1.677567E-1,4.1692827E-2,5.0827533E-1,-5.2232567E-2,-1.2481534E-1,3.268364E-1,-1.5862341E-1,2.5829641E-2,-2.4276505E-1,-2.1941443E-1,-4.7912204E-1,-4.9682015E-1,-1.8071723E-1,-3.0823597E-1,2.6070222E-1,-1.5527643E-1,6.421431E-1,-1.7344841E-1,-1.5035556E-1,4.8052214E-2,9.1561206E-2,-1.5916473E-1,-1.14744015E-1,4.1913787E-1,-1.5834017E-1,9.061633E-1,2.0344667E-1,2.6457863E-2,-1.791794E-1,-2.844893E-2,-3.3611515E-1,-3.9715645E-1,4.1412386E-1,-3.5244426E-1,2.3523803E0,1.9831486E-1,-1.6776821E-1,-2.9987463E-1,4.9028748E-1,-1.6603827E-1,4.4579096E-2,-8.6664215E-2,-1.3716902E-1,2.9356217E-1,-3.9551535E-1,3.9948817E-2,-4.96825E-1,6.296849E-2,-3.9552343E-1,-1.5418641E-1,4.082606E-1,-3.944976E-1,7.1160805E-1,-1.6796458E-1,4.2250437E-1,1.5966254E-1,-7.770118E-2,-1.5784486E-1,4.1199586E-1,3.9049447E-2,9.037639E-2,-1.10870354E-1,-3.954798E-2,3.8629434E-1],"split_indices":[32,27,0,0,33,11,0,0,0,32,1,13,0,0,16,37,7,0,2,13,9,30,36,27,1,37,3,5,0,32,36,4,19,0,0,0,5,39,17,13,24,0,0,0,1,0,0,0,0,0,0,0,9,0,1,0,0,23,28,35,36,31,17,0,0,8,11,0,0,0,0,0,0,0,23,0,0,14,5,39,26,0,30,0,0,0,7,0,0,0,0,0,0,19,0,36,0,19,31,0,19,0,0,0,0,0,0,0,0,0,0,0,0],"split_type":[0,0,0,0,0,0,0,0,0,0,0,0,0,0,0,0,0,0,0,0,0,0,0,0,0,0,0,0,0,0,0,0,0,0,0,0,0,0,0,0,0,0,0,0,0,0,0,0,0,0,0,0,0,0,0,0,0,0,0,0,0,0,0,0,0,0,0,0,0,0,0,0,0,0,0,0,0,0,0,0,0,0,0,0,0,0,0,0,0,0,0,0,0,0,0,0,0,0,0,0,0,0,0,0,0,0,0,0,0,0,0,0,0],"sum_hessian":[3.166518E4,2.4419701E4,7.245478E3,2.7071914E3,2.171251E4,7.1425E3,1.0297808E2,2.2312288E3,4.759625E2,1.783461E4,3.8779019E3,7.1332075E3,9.292804E0,9.352465E1,2.137704E3,1.7739447E4,9.5161995E1,2.3205302E2,3.6458489E3,7.598648E1,7.0572207E3,5.004235E1,2.0876619E3,1.7734652E4,4.7935705E0,2.234691E1,7.281509E1,2.170095E2,1.5043509E1,3.6258042E3,2.0044699E1,6.065709E1,1.5329388E1,4.8277E0,7.052393E3,3.1166525E1,1.8875824E1,9.2471985E1,1.9951898E3,1.17813835E1,1.7722871E4,1.4740213E0,3.319549E0,1.3965981E1,8.38093E0,1.0064485E0,7.180863E1,3.7112496E0,2.1329826E2,3.624623E3,1.1812509E0,2.2817292E0,1.776297E1,2.8137884E0,5.7843304E1,1.393218E1,1.3972073E0,1.5676016E1,3.1998084E0,4.311601E1,4.9355972E1,1.9929464E3,2.2434466E0,1.4055083E0,1.03758745E1,1.7647395E4,7.547666E1,7.3339467E0,1.046983E0,1.8834519E0,1.58795185E1,2.1393168E0,5.5703987E1,1.3442572E1,2.233444E0,1.8267865E0,1.373022E0,4.877724E0,3.8238285E1,3.6074345E1,1.328163E1,1.6954103E3,2.975361E2,1.215247E0,1.0281996E0,1.7349787E4,2.9760767E2,1.9312837E0,7.354537E1,1.196065E0,1.0373789E0,3.1259284E0,1.7517956E0,3.717994E1,1.0583457E0,3.2537857E1,3.5364888E0,2.8243258E0,1.0457304E1,2.095639E2,8.797218E1,2.9098809E0,2.9469778E2,3.4497986E1,2.6819527E0,2.0203243E1,1.2334612E1,1.7535304E0,1.0707955E0,5.0193324E0,5.437971E0,1.5376461E1,7.259572E1],"tree_param":{"num_deleted":"0","num_feature":"41","num_nodes":"113","size_leaf_vector":"1"}},{"base_weights":[1.5621093E-2,9.378323E-1,-5.4223895E-1,-1.6864851E-1,1.3397895E0,-5.4664713E-1,-1.2337583E-1,1.3772948E0,-1.679204E-1,-5.5978197E-1,-4.4780195E-1,-4.952743E-1,1.3136367E0,1.3780724E0,-1.3772842E-1,-5.600566E-1,-2.6369417E-1,7.377208E-2,-5.5645514E-1,6.807547E-1,-5.289321E-1,4.089989E-1,-9.594621E-2,4.1348532E-1,-8.49446E-2,-2.5686368E-1,-5.6011254E-1,-1.581113E-1,3.331704E-1,-2.5018704E-1,1.2537925E0,-1.6858143E-1,-2.4051878E-1,3.851038E-1,-1.054079E-1,-5.4084384E-1,1.7831707E-1,5.120441E-2,-1.2662639E-1,-5.6138676E-1,-5.404668E-1,-5.264942E-1,8.7861806E-1,4.1128233E-1,-1.4570667E-1,5.3101635E-1,-1.6206254E-1,-3.916518E-1,-1.6755308E-1,-1.6848953E-1,-4.693644E-1,8.394036E-1,-1.671243E-1,-5.4629654E-1,5.348931E-1,4.1409883E-1,-1.5972544E-1,4.4203964E-1,-1.421511E-1,3.385469E-1,-1.601141E-1,-1.6510244E-1,5.1120925E-1,-1.6866747E-1,-4.604484E-1,-1.0640722E-1,-1.6410631E-1,3.260083E-2,-8.6414635E-2],"categories":[],"categories_nodes":[],"categories_segments":[],"categories_sizes":[],"default_left":[0,0,0,0,0,0,0,0,0,0,0,0,0,0,0,0,0,0,0,0,0,0,0,0,0,0,0,0,0,0,0,0,0,0,0,0,0,0,0,0,0,0,0,0,0,0,0,0,0,0,0,0,0,0,0,0,0,0,0,0,0,0,0,0,0,0,0,0,0],"id":13,"left_children":[1,3,5,-1,7,9,11,13,-1,15,17,19,21,23,-1,25,27,29,31,33,35,-1,-1,-1,-1,37,39,-1,-1,41,43,-1,45,-1,-1,47,-1,-1,-1,49,51,53,55,-1,-1,57,-1,59,-1,-1,61,-1,-1,63,-1,-1,-1,-1,-1,-1,-1,-1,-1,-1,65,67,-1,-1,-1],"loss_changes":[1.6300907E4,7.20134E3,3.6385254E1,0E0,6.717969E2,2.511377E1,1.11222885E2,1.3824219E1,0E0,1.2548828E0,1.3018997E2,6.8947296E0,3.9110565E0,3.640625E0,0E0,1.4794922E-1,7.05229E0,1.520099E2,3.1575317E0,3.5815234E0,2.4765549E0,0E0,0E0,0E0,0E0,4.2678076E-1,1.2792969E-1,0E0,0E0,9.7830315E1,1.8117813E1,0E0,8.188225E0,0E0,0E0,2.0268631E-1,0E0,0E0,0E0,1.00097656E-1,6.1223663E1,1.2472023E1,4.4458908E1,0E0,0E0,1.0229462E1,0E0,4.9809914E0,0E0,0E0,9.553471E0,0E0,0E0,8.303833E-2,0E0,0E0,0E0,0E0,0E0,0E0,0E0,0E0,0E0,0E0,1.3105383E0,4.2258662E-1,0E0,0E0,0E0],"parents":[2147483647,0,0,1,1,2,2,4,4,5,5,6,6,7,7,9,9,10,10,11,11,12,12,13,13,15,15,16,16,17,17,18,18,19,19,20,20,25,25,26,26,29,29,30,30,32,32,35,35,39,39,40,40,41,41,42,42,45,45,47,47,50,50,53,53,64,64,65,65],"right_children":[2,4,6,-1,8,10,12,14,-1,16,18,20,22,24,-1,26,28,30,32,34,36,-1,-1,-1,-1,38,40,-1,-1,42,44,-1,46,-1,-1,48,-1,-1,-1,50,52,54,56,-1,-1,58,-1,60,-1,-1,62,-1,-1,64,-1,-1,-1,-1,-1,-1,-1,-1,-1,-1,66,68,-1,-1,-1],"split_conditions":[-4.9683127E-1,-3.4743676E-1,2.4607184E-3,-1.6864851E-1,-4.6732172E-1,-1.7816517E-1,-3.7485185E-1,-4.1644815E-1,-1.679204E-1,4.3419747E0,-1.7961144E-1,-4.968303E-1,-4.6991017E-1,-8.1054576E-2,-1.3772842E-1,-4.0549138E-1,-3.7753192E-1,-4.6933496E-1,-3.5492826E-1,-4.6991017E-1,-6.8003334E-2,4.089989E-1,-9.594621E-2,4.1348532E-1,-8.49446E-2,3.0012338E0,2.1052804E0,-1.581113E-1,3.331704E-1,-1.8693328E-1,-2.5398761E-2,-1.6858143E-1,-7.948248E-2,3.851038E-1,-1.054079E-1,-4.9682814E-1,1.7831707E-1,5.120441E-2,-1.2662639E-1,1.3768134E1,-2.4168272E-1,-3.947312E-1,-1.7844892E-1,4.1128233E-1,-1.4570667E-1,-9.147026E-2,-1.6206254E-1,-4.6991017E-1,-1.6755308E-1,-1.6848953E-1,-3.9665446E-1,8.394036E-1,-1.671243E-1,-4.790613E-1,5.348931E-1,4.1409883E-1,-1.5972544E-1,4.4203964E-1,-1.421511E-1,3.385469E-1,-1.601141E-1,-1.6510244E-1,5.1120925E-1,-1.6866747E-1,-3.9709884E-1,-1.7301188E-1,-1.6410631E-1,3.260083E-2,-8.6414635E-2],"split_indices":[36,17,29,0,1,31,0,25,0,34,8,36,1,3,0,0,0,1,32,1,37,0,0,0,0,35,2,0,0,10,5,0,3,0,0,36,0,0,0,37,9,19,11,0,0,20,0,1,0,0,0,0,0,35,0,0,0,0,0,0,0,0,0,0,26,14,0,0,0],"split_type":[0,0,0,0,0,0,0,0,0,0,0,0,0,0,0,0,0,0,0,0,0,0,0,0,0,0,0,0,0,0,0,0,0,0,0,0,0,0,0,0,0,0,0,0,0,0,0,0,0,0,0,0,0,0,0,0,0,0,0,0,0,0,0,0,0,0,0,0,0],"sum_hessian":[3.1683186E4,1.194159E4,1.9741596E4,2.523644E3,9.417946E3,1.9535695E4,2.059004E2,9.235863E3,1.820831E2,1.7240113E4,2.2955837E3,1.6408945E2,4.1810963E1,9.232203E3,3.6598477E0,1.7223242E4,1.6869368E1,3.9582132E2,1.8997623E3,4.03062E0,1.6005882E2,4.073703E1,1.0739309E0,9.231195E3,1.0076795E0,4.0217185E0,1.721922E4,1.467396E1,2.1954086E0,3.1117917E2,8.4642166E1,1.86659E3,3.3172333E1,2.3904605E0,1.6401595E0,1.5889246E2,1.1663704E0,1.1117787E0,2.9099398E0,1.6144521E4,1.0746998E3,2.5041624E2,6.0762917E1,7.949997E1,5.142201E0,9.064465E0,2.4107868E1,1.9276077E1,1.3961638E2,1.6096567E4,4.7954067E1,4.492837E0,1.070207E3,2.490443E2,1.371951E0,4.4840935E1,1.5921984E1,4.4368277E0,4.627637E0,1.0540031E0,1.8222075E1,4.6951515E1,1.0025511E0,2.053874E2,4.3656887E1,9.015768E0,3.464112E1,4.3119025E0,4.703866E0],"tree_param":{"num_deleted":"0","num_feature":"41","num_nodes":"69","size_leaf_vector":"1"}},{"base_weights":[-4.1704357E-1,-1.5290771E-1,1.6195047E-1],"categories":[],"categories_nodes":[],"categories_segments":[],"categories_sizes":[],"default_left":[0,0,0],"id":14,"left_children":[1,-1,-1],"loss_changes":[4.8608514E2,0E0,0E0],"parents":[2147483647,0,0],"right_children":[2,-1,-1],"split_conditions":[3.8796058E0,-1.5290771E-1,1.6195047E-1],"split_indices":[6,0,0],"split_type":[0,0,0],"sum_hessian":[5.478862E3,4.995632E3,4.8322992E2],"tree_param":{"num_deleted":"0","num_feature":"41","num_nodes":"3","size_leaf_vector":"1"}},{"base_weights":[-4.0339616E-1,-4.7964123E-1,3.351117E-1,-4.7730693E-1,-2.7046707E0,4.7168842E-1,-5.2349585E-1,-4.8244324E-1,1.3967766E-1,-9.2762515E-2,-1.1073256E0,5.3830785E-1,-1.5625146E-1,-3.0433825E-1,-1.5028131E-1,-1.5303639E-1,-4.324102E-1,1.7816254E-1,-7.575081E-1,-1.9770287E-1,1.6288614E-1,4.8213282E-1,-1.527738E-1,-1.4147235E-1,-6.7653126E-1,1.7357294E-1,-1.40968E-1],"categories":[],"categories_nodes":[],"categories_segments":[],"categories_sizes":[],"default_left":[0,0,0,0,0,0,0,0,0,0,0,0,0,0,0,0,0,0,0,0,0,0,0,0,0,0,0],"id":15,"left_children":[1,3,5,7,9,11,13,15,17,-1,-1,19,-1,-1,-1,-1,21,-1,23,-1,-1,25,-1,-1,-1,-1,-1],"loss_changes":[3.0743695E2,2.4402222E1,6.0201084E1,1.5731323E1,1.0602486E1,2.9481514E1,2.741661E-1,6.5682373E0,1.7395458E1,0E0,0E0,2.662651E0,0E0,0E0,0E0,0E0,1.233992E2,0E0,5.1096153E0,0E0,0E0,1.2790735E1,0E0,0E0,0E0,0E0,0E0],"parents":[2147483647,0,0,1,1,2,2,3,3,4,4,5,5,6,6,7,7,8,8,11,11,16,16,18,18,21,21],"right_children":[2,4,6,8,10,12,14,16,18,-1,-1,20,-1,-1,-1,-1,22,-1,24,-1,-1,26,-1,-1,-1,-1,-1],"split_conditions":[3.2010671E-1,7.896949E-1,-3.8564533E-1,4.859714E0,1.456756E-1,-3.6905715E-1,-3.4435618E-1,-3.7485185E-1,1.9227738E0,-9.2762515E-2,-1.1073256E0,-3.7485185E-1,-1.5625146E-1,-3.0433825E-1,-1.5028131E-1,-1.5303639E-1,-3.6905715E-1,1.7816254E-1,4.8471224E-1,-1.9770287E-1,1.6288614E-1,-2.192489E-1,-1.527738E-1,-1.4147235E-1,-6.7653126E-1,1.7357294E-1,-1.40968E-1],"split_indices":[9,8,4,25,23,0,32,0,23,0,0,0,0,0,0,0,0,0,8,0,0,27,0,0,0,0,0],"split_type":[0,0,0,0,0,0,0,0,0,0,0,0,0,0,0,0,0,0,0,0,0,0,0,0,0,0,0],"sum_hessian":[5.456097E3,4.9458296E3,5.1026724E2,4.94186E3,3.9700427E0,4.4062817E2,6.963907E1,4.9012754E3,4.0584328E1,1.5410763E0,2.4289665E0,4.133419E2,2.7286293E1,1.1275555E0,6.851151E1,3.1496885E3,1.7515869E3,2.7168453E1,1.34158745E1,1.0532732E0,4.122886E2,1.353461E2,1.6162407E3,1.2369142E1,1.046733E0,1.23252464E2,1.2093642E1],"tree_param":{"num_deleted":"0","num_feature":"41","num_nodes":"27","size_leaf_vector":"1"}},{"base_weights":[3.0258978E-2,9.4776285E-1,-5.624522E-1,9.5868605E-1,-1.6735837E-1,-1.688149E-1,-1.5068191E-1,9.6054614E-1,-1.5951495E-1,9.6093535E-1,-1.320718E-1,1.268052E-1,9.614333E-1,-1.4495805E-1,2.6283097E-1,9.108706E-1,2.8888047E-1,2.8805315E-1,2.877823E-1,-1.7159365E-1,2.829955E-1],"categories":[],"categories_nodes":[],"categories_segments":[],"categories_sizes":[],"default_left":[0,0,0,0,0,0,0,0,0,0,0,0,0,0,0,0,0,0,0,0,0],"id":16,"left_children":[1,3,5,7,-1,-1,-1,9,-1,11,-1,13,15,-1,-1,17,-1,-1,19,-1,-1],"loss_changes":[1.8697799E4,2.2245996E2,5.029297E-2,3.765332E1,0E0,0E0,0E0,7.7177734E0,0E0,5.4335938E0,0E0,4.5975733E0,1.3867188E-1,0E0,0E0,1.2137909E1,0E0,0E0,1.8044533E1,0E0,0E0],"parents":[2147483647,0,0,1,1,2,2,3,3,7,7,9,9,11,11,12,12,15,15,18,18],"right_children":[2,4,6,8,-1,-1,-1,10,-1,12,-1,14,16,-1,-1,18,-1,-1,20,-1,-1],"split_conditions":[-4.031735E-1,-2.0590138E-1,8.076224E-1,-1.15448445E-1,-1.6735837E-1,-1.688149E-1,-1.5068191E-1,-6.73617E-2,-1.5951495E-1,2.4011475E-3,-1.320718E-1,-6.8032816E-2,-1.7342381E-1,-1.4495805E-1,2.6283097E-1,-3.9553767E-1,2.8888047E-1,2.8805315E-1,-3.9280125E-1,-1.7159365E-1,2.829955E-1],"split_indices":[0,15,14,14,0,0,0,37,0,29,0,37,8,0,0,19,0,0,19,0,0],"split_type":[0,0,0,0,0,0,0,0,0,0,0,0,0,0,0,0,0,0,0,0,0],"sum_hessian":[3.438068E4,1.3493083E4,2.0887596E4,1.3396258E4,9.6825905E1,2.0788012E4,9.958303E1,1.3379914E4,1.6343115E1,1.3376512E4,3.4026265E0,8.132604E0,1.3368379E4,4.6787786E0,3.453825E0,4.03078E2,1.2965301E4,3.7301904E2,3.005897E1,1.3059018E1,1.699995E1],"tree_param":{"num_deleted":"0","num_feature":"41","num_nodes":"21","size_leaf_vector":"1"}},{"base_weights":[1.7963018E-2,8.716729E-1,-4.7206795E-1,9.2074907E-1,-1.6524526E-1,-5.4870266E-1,1.4849932E-1,-6.499069E-2,9.504152E-1,-1.650135E-1,-5.2072453E-1,5.0795966E-1,-1.6419284E-1,5.87623E-1,-1.6492131E-1,-1.6408126E-1,9.6898514E-1,5.825993E-1,-1.6495134E-1,-4.931927E-1,7.7496743E-1,-2.2004327E-1,8.112453E-1,-1.6661756E-1,9.715056E-1,-1.37894E-1,2.8042242E-1,-1.6452612E-1,-1.3722542E-1,-1.6580598E-1,8.810496E-1,7.183618E-1,-1.6301823E-1,-1.23044364E-1,8.384452E-1,9.7292143E-1,-1.5472111E-1,2.4908185E-1,-1.5951249E-1,-1.6145636E-1,9.3140584E-1,2.7919245E-1,-8.875863E-2,8.6454374E-1,-1.09924674E-1,-1.4581719E-1,9.7331446E-1,9.8391306E-1,-1.6122659E-1,-8.298862E-2,8.791386E-1,8.832319E-1,9.796808E-1,2.968055E-1,-1.2722911E-1,2.8113827E-1,5.278761E-1,-1.6687457E-1,9.7494555E-1,2.939725E-1,5.5422467E-1,5.413613E-2,3.353393E-1,1.0487717E-1,2.9555327E-1,-1.3337588E-1,2.990282E-1],"categories":[],"categories_nodes":[],"categories_segments":[],"categories_sizes":[],"default_left":[0,0,0,0,0,0,0,0,0,0,0,0,0,0,0,0,0,0,0,0,0,0,0,0,0,0,0,0,0,0,0,0,0,0,0,0,0,0,0,0,0,0,0,0,0,0,0,0,0,0,0,0,0,0,0,0,0,0,0,0,0,0,0,0,0,0,0],"id":17,"left_children":[1,3,5,7,-1,9,11,13,15,-1,17,19,-1,21,-1,-1,23,25,-1,27,29,31,33,-1,35,-1,-1,-1,37,-1,39,41,-1,-1,43,45,-1,-1,-1,-1,47,-1,-1,49,-1,-1,51,53,-1,-1,55,57,59,-1,-1,-1,61,-1,63,-1,65,-1,-1,-1,-1,-1,-1],"loss_changes":[1.2366924E4,7.530913E2,8.932588E2,3.0481152E2,0E0,3.413086E-1,5.1680914E2,9.693834E1,2.818379E2,0E0,2.5506027E1,3.6452493E2,0E0,2.3775051E1,0E0,0E0,3.8933594E1,8.006037E0,0E0,5.575264E0,1.5200287E2,9.225124E0,3.7501602E0,0E0,2.1510742E1,0E0,0E0,0E0,1.56840925E1,0E0,7.172467E1,1.9745312E0,0E0,0E0,3.4810028E0,6.189453E0,0E0,0E0,0E0,0E0,7.478406E1,0E0,0E0,1.8885727E0,0E0,0E0,4.8496094E0,7.5406494E0,0E0,0E0,1.497078E0,8.872699E1,3.564453E-1,0E0,0E0,0E0,3.1072717E0,0E0,3.6759644E0,0E0,3.656986E0,0E0,0E0,0E0,0E0,0E0,0E0],"parents":[2147483647,0,0,1,1,2,2,3,3,5,5,6,6,7,7,8,8,10,10,11,11,13,13,16,16,17,17,19,19,20,20,21,21,22,22,24,24,28,28,30,30,31,31,34,34,35,35,40,40,43,43,46,46,47,47,50,50,51,51,52,52,56,56,58,58,60,60],"right_children":[2,4,6,8,-1,10,12,14,16,-1,18,20,-1,22,-1,-1,24,26,-1,28,30,32,34,-1,36,-1,-1,-1,38,-1,40,42,-1,-1,44,46,-1,-1,-1,-1,48,-1,-1,50,-1,-1,52,54,-1,-1,56,58,60,-1,-1,-1,62,-1,64,-1,66,-1,-1,-1,-1,-1,-1],"split_conditions":[-4.1939816E-1,-4.005659E-1,1.7138098E-1,-2.1930923E-1,-1.6524526E-1,1.8708952E-1,2.6679823E-1,-4.968093E-1,-4.031735E-1,-1.650135E-1,4.585316E-2,5.6024667E-2,-1.6419284E-1,-3.3613303E-1,-1.6492131E-1,-1.6408126E-1,2.4011475E-3,9.5504716E-2,-1.6495134E-1,4.6183098E-2,2.3812903E-3,-4.7912204E-1,1.3307028E-3,-1.6661756E-1,-1.8584047E-1,-1.37894E-1,2.8042242E-1,-1.6452612E-1,-1.49774E-1,-1.6580598E-1,-4.583055E-1,5.1614485E0,-1.6301823E-1,-1.23044364E-1,1.3422858E-3,-3.5357207E-1,-1.5472111E-1,2.4908185E-1,-1.5951249E-1,-1.6145636E-1,-2.0432623E-1,2.7919245E-1,-8.875863E-2,-4.031735E-1,-1.09924674E-1,-1.4581719E-1,-3.9280125E-1,-4.005659E-1,-1.6122659E-1,-8.298862E-2,-3.3611003E-1,-1.882648E-1,-3.17069E-1,2.968055E-1,-1.2722911E-1,2.8113827E-1,-4.7909677E-1,-1.6687457E-1,-8.919685E-2,2.939725E-1,2.0517914E-2,5.413613E-2,3.353393E-1,1.0487717E-1,2.9555327E-1,-1.3337588E-1,2.990282E-1],"split_indices":[7,0,8,27,0,24,9,36,0,0,40,9,0,39,0,0,29,8,0,9,29,35,16,0,10,0,0,0,13,0,36,28,0,0,16,30,0,0,0,0,23,0,0,0,0,0,19,0,0,0,39,27,36,0,0,0,35,0,28,0,19,0,0,0,0,0,0],"split_type":[0,0,0,0,0,0,0,0,0,0,0,0,0,0,0,0,0,0,0,0,0,0,0,0,0,0,0,0,0,0,0,0,0,0,0,0,0,0,0,0,0,0,0,0,0,0,0,0,0,0,0,0,0,0,0,0,0,0,0,0,0,0,0,0,0,0,0],"sum_hessian":[2.9559607E4,1.0779415E4,1.8780191E4,1.0420268E4,3.5914813E2,1.6716021E4,2.0641692E3,3.0440393E2,1.0115863E4,1.5932941E4,7.83081E2,1.3612213E3,7.0294775E2,1.2964754E2,1.747564E2,1.2357012E2,9.992293E3,1.9643057E1,7.634379E2,2.8642322E2,1.0747982E3,2.8115953E1,1.0153158E2,1.6131836E1,9.976161E3,4.883607E0,1.4759451E1,2.4748564E2,3.8937565E1,7.9212814E1,9.955853E2,6.8922253E0,2.1223728E1,1.9051001E0,9.962648E1,9.967019E3,9.143045E0,1.0957871E1,2.7979694E1,3.3782223E1,9.618031E2,5.7674856E0,1.1247392E0,9.779068E1,1.8357958E0,2.3512464E0,9.964667E3,9.289263E2,3.2876858E1,1.0081673E0,9.678252E1,6.669638E2,9.297703E3,9.256482E2,3.2780435E0,8.163735E1,1.51451645E1,3.964565E1,6.273181E2,9.291433E3,6.2709723E0,1.0353548E1,4.7916174E0,1.0664983E1,6.1665314E2,1.9239504E0,4.347022E0],"tree_param":{"num_deleted":"0","num_feature":"41","num_nodes":"67","size_leaf_vector":"1"}},{"base_weights":[1.8245805E-2,-5.3988624E-1,6.735797E-1,-7.3890574E-2,-1.6522983E-1,8.0274147E-1,-5.2717984E-1,-1.65101E-1,9.0835196E-1,5.7660186E-1,9.779635E-1,-1.6493925E-1,1.7856024E-1,6.8237215E-1,2.855449E-1,9.075622E-1,-1.6508064E-1,9.8543006E-1,-1.6053028E-1,6.5322614E-1,-1.5634735E-1,7.8502107E-1,-1.5178135E-1,-1.6289963E-1,9.292593E-1,-1.09116934E-1,2.9575333E-1,2.8982574E-1,-1.4016017E-1,1.5101168E-1,2.788955E-1,9.411307E-1,-1.6036758E-1,9.429202E-1,-1.4869061E-1,9.469505E-1,6.224234E-1,4.99966E-1,9.4917846E-1,-1.4101931E-1,7.60892E-1,-1.4142643E-1,1.8475117E-1,2.9697147E-1,2.791315E-1,2.3878524E-1,-9.951414E-2],"categories":[],"categories_nodes":[],"categories_segments":[],"categories_sizes":[],"default_left":[0,0,0,0,0,0,0,0,0,0,0,0,0,0,0,0,0,0,0,0,0,0,0,0,0,0,0,0,0,0,0,0,0,0,0,0,0,0,0,0,0,0,0,0,0,0,0],"id":18,"left_children":[1,3,5,7,-1,9,11,-1,13,15,17,-1,19,21,-1,23,-1,25,-1,27,-1,29,-1,-1,31,-1,-1,-1,-1,-1,-1,33,-1,35,-1,37,39,41,43,-1,45,-1,-1,-1,-1,-1,-1],"loss_changes":[1.0837888E4,8.1089355E1,2.1141274E3,1.7189659E2,0E0,4.8703516E2,2.1235596E1,0E0,5.291672E-1,2.0049618E3,7.883984E1,0E0,1.4248709E1,3.1892862E0,0E0,1.3126978E2,0E0,4.2143555E0,0E0,9.352886E0,0E0,4.0629482E-1,0E0,0E0,7.1646484E1,0E0,0E0,0E0,0E0,0E0,0E0,1.0909668E1,0E0,4.650879E0,0E0,3.5129395E0,8.42034E0,2.7635636E0,2.1193848E0,0E0,2.090601E0,0E0,0E0,0E0,0E0,0E0,0E0],"parents":[2147483647,0,0,1,1,2,2,3,3,5,5,6,6,8,8,9,9,10,10,12,12,13,13,15,15,17,17,19,19,21,21,24,24,31,31,33,33,35,35,36,36,37,37,38,38,40,40],"right_children":[2,4,6,8,-1,10,12,-1,14,16,18,-1,20,22,-1,24,-1,26,-1,28,-1,30,-1,-1,32,-1,-1,-1,-1,-1,-1,34,-1,36,-1,38,40,42,44,-1,46,-1,-1,-1,-1,-1,-1],"split_conditions":[-2.4128377E-1,1.3224292E-3,2.4210045E-3,-2.9234967E-1,-1.6522983E-1,1.3505594E-3,-3.394082E-1,-1.65101E-1,-2.7322713E-1,1.3224292E-3,1.9657908E-1,-1.6493925E-1,1.9657908E-1,3.7065025E-3,2.855449E-1,-4.610915E-1,-1.6508064E-1,-1.8766181E-1,-1.6053028E-1,3.8229665E-3,-1.5634735E-1,-1.0647556E-2,-1.5178135E-1,-1.6289963E-1,3.6203117E0,-1.09116934E-1,2.9575333E-1,2.8982574E-1,-1.4016017E-1,1.5101168E-1,2.788955E-1,-4.5876554E-1,-1.6036758E-1,3.4971015E0,-1.4869061E-1,-2.2853523E-2,-6.47183E-3,-1.1876063E-1,-5.512868E-2,-1.4101931E-1,3.6803875E-2,-1.4142643E-1,1.8475117E-1,2.9697147E-1,2.791315E-1,2.3878524E-1,-9.951414E-2],"split_indices":[0,16,29,0,0,16,30,0,0,16,0,0,0,5,0,2,0,10,0,23,0,5,0,0,0,0,0,0,0,0,0,1,0,0,0,5,5,31,0,0,5,0,0,0,0,0,0],"split_type":[0,0,0,0,0,0,0,0,0,0,0,0,0,0,0,0,0,0,0,0,0,0,0,0,0,0,0,0,0,0,0,0,0,0,0,0,0,0,0,0,0,0,0,0,0,0,0],"sum_hessian":[2.9628922E4,1.6001233E4,1.3627688E4,3.6524344E2,1.563599E4,1.2304468E4,1.3232201E3,2.4624142E2,1.1900203E2,5.3736216E3,6.9308467E3,1.2823444E3,4.087571E1,2.1890175E1,9.7111855E1,4.1538394E3,1.2197822E3,6.8971597E3,3.3687016E1,2.4394035E1,1.6481674E1,2.0462002E1,1.428174E0,6.086228E1,4.092977E3,1.8480567E0,6.8953115E3,1.9176956E1,5.217078E0,8.462603E0,1.1999399E1,4.0604048E3,3.25724E1,4.055697E3,4.7077546E0,4.003399E3,5.2298023E1,2.0973488E1,3.9824255E3,5.6135535E0,4.668447E1,1.9081696E0,1.9065317E1,1.2386823E3,2.7437432E3,4.5496136E1,1.1883365E0],"tree_param":{"num_deleted":"0","num_feature":"41","num_nodes":"47","size_leaf_vector":"1"}},{"base_weights":[2.4551904E-2,-1.6002963E-1,9.88094E-1,-3.9155164E-1,9.419444E-2,9.642848E-2,2.9646975E-1,-4.1297084E-1,8.148259E-1,9.727074E-1,-1.4386031E-1,-4.2504773E-1,9.898773E-1,2.9589474E-1,-1.5809177E-1,1.0087444E0,4.7088838E-1,1.026431E0,-2.5971472E-1,3.264572E-2,-4.5539054E-1,-1.2639855E-1,1.0269186E0,1.0369436E0,9.6137387E-1,-6.966426E-2,8.8483804E-1,1.279242E0,9.796928E-1,8.0671495E-1,-3.7444648E-1,1.0201619E0,-4.5587304E-1,-4.771233E-1,4.117976E-2,1.035183E0,2.8338319E-2,1.0206082E0,1.1146573E0,2.1645904E-1,9.89271E-1,1.0281565E0,-3.576712E-1,9.8725784E-1,-1.3096471E-1,6.13606E-1,4.050127E-1,-3.533592E-1,9.9336445E-1,-4.5496824E-1,1.062309E0,-4.2043057E-1,6.172348E-1,1.1346242E0,-4.7719768E-1,9.9405265E-1,-5.1230806E-1,-4.8011297E-1,8.490968E-1,5.626861E-1,-1.9534676E-1,3.12888E-1,8.5951366E-2,2.963062E-1,1.063096E0,1.2198073E0,2.974809E-1,-5.5446174E-2,2.8130674E-1,2.9813454E-1,4.5265228E-1,9.62323E-2,3.2540056E-1,-4.7970265E-1,3.8626385E-1,3.0561793E-1,1.1253012E-2,3.9534822E-1,-1.3831794E-1,-1.4047039E-1,5.7678238E-2,3.0026895E-1,6.3817567E-1,4.0576273E-1,-1.6105822E-1,1.2792484E0,3.089803E-1,-1.4485046E-1,-5.045986E-1,-3.596187E-1,9.152884E-1,1.3484002E0,9.7087634E-1,-1.5686849E-1,3.8629908E-2,3.093735E-1,9.3603946E-2,-5.414393E-1,4.9182028E-1,-3.5958812E-1,-5.0730604E-1,-1.439277E-1,1.1359419E0,1.1555686E0,-1.6320522E-1,1.5336092E-1,-4.1085944E-1,4.0513936E-1,1.0399919E0,2.9546076E-1,1.3017577E0,-4.3058005E-1,6.175667E-1,-1.2457479E-1,2.9634377E-1,-1.5439862E-1,-1.8600634E-1,-1.1667778E-1,7.2633666E-1,-1.2995815E-1,2.8684095E-1,3.8999847E-1,7.055758E-1,1.2882112E0,-3.1308773E-1,-5.193257E-1,7.4053454E-1,2.7313718E-1,-1.6195989E-1,7.300797E-1,2.9617852E-1,1.18922025E-1,4.0712208E-1,1.000242E0,-2.1383168E-1,5.2654292E-2,-5.434908E-1,4.5995042E-1,-1.5989044E-1,8.786256E-1,-5.066119E-1,-5.27175E-1,1.5958217E-1,3.757002E-1,-9.829908E-2,-1.2130106E-1,1.1989591E0,-1.5943107E-1,3.292345E-1,1.1657227E0,-4.5395645E-1,3.060893E-1,1.2832159E0,4.217487E-1,3.2286888E-1,-1.439689E-1,-3.032601E-2,-1.1014608E-1,3.197824E-1,3.2601405E-2,-1.1639337E-1,2.7436572E-1,3.9936906E-1,1.4574313E-2,2.702261E-1,4.0742722E-1,3.046216E-1,-3.9935073E-1,-6.744748E-2,-5.4017794E-1,-8.9163676E-2,-1.4121337E-1,3.2749978E-1,3.660666E-1,2.9611853E-1,3.029266E-1,9.620379E-2,-1.1967564E-1,5.069444E-2,-1.6396275E-1,-9.739093E-2,-1.8970143E-2,8.9834267E-1,-1.6373353E-1,2.9628822E-1,-1.6020377E-1,-1.2551697E-1,2.8856227E-1,-1.6357733E-1,4.6955067E-1,3.1760123E-1,1.9196737E-1,-1.347092E-1,4.622752E-1,1.0994886E-2,-1.486716E-1,1.7065813E-1,4.8296773E-1,3.0053946E-1,-9.649554E-2,2.6476252E-1,3.415489E-1,-1.2121279E-1,-1.1518469E-1,6.506447E-2,-1.6279194E-1,2.6463147E-2,-1.5196368E-1,2.9514194E-1,7.397809E-2,3.392418E-1],"categories":[],"categories_nodes":[],"categories_segments":[],"categories_sizes":[],"default_left":[0,0,0,0,0,0,0,0,0,0,0,0,0,0,0,0,0,0,0,0,0,0,0,0,0,0,0,0,0,0,0,0,0,0,0,0,0,0,0,0,0,0,0,0,0,0,0,0,0,0,0,0,0,0,0,0,0,0,0,0,0,0,0,0,0,0,0,0,0,0,0,0,0,0,0,0,0,0,0,0,0,0,0,0,0,0,0,0,0,0,0,0,0,0,0,0,0,0,0,0,0,0,0,0,0,0,0,0,0,0,0,0,0,0,0,0,0,0,0,0,0,0,0,0,0,0,0,0,0,0,0,0,0,0,0,0,0,0,0,0,0,0,0,0,0,0,0,0,0,0,0,0,0,0,0,0,0,0,0,0,0,0,0,0,0,0,0,0,0,0,0,0,0,0,0,0,0,0,0,0,0,0,0,0,0,0,0,0,0,0,0,0,0,0,0,0,0,0,0,0,0,0,0,0,0,0,0,0,0,0,0],"id":19,"left_children":[1,3,5,7,9,-1,-1,11,13,15,17,19,21,-1,-1,23,25,27,29,31,33,-1,35,37,39,41,43,45,47,49,51,53,55,57,59,61,-1,63,65,67,69,71,73,75,-1,77,-1,79,81,83,85,87,89,91,93,95,97,99,101,103,105,-1,-1,-1,107,109,-1,111,-1,-1,113,-1,-1,115,117,-1,-1,-1,-1,-1,-1,-1,119,-1,-1,121,-1,123,125,127,129,131,133,-1,-1,-1,-1,135,137,139,141,-1,143,145,-1,147,149,-1,151,-1,153,155,157,-1,-1,-1,159,-1,161,-1,-1,-1,163,165,167,169,171,-1,-1,173,-1,-1,-1,175,177,-1,179,-1,-1,181,183,185,187,-1,-1,-1,189,-1,191,193,195,-1,197,-1,-1,-1,-1,-1,-1,-1,-1,-1,199,-1,-1,-1,-1,201,203,205,207,-1,-1,209,-1,-1,-1,-1,-1,-1,-1,-1,-1,-1,-1,-1,-1,-1,-1,-1,-1,-1,-1,-1,-1,-1,-1,-1,-1,-1,-1,-1,-1,-1,-1,-1,-1,-1,-1,-1,-1],"loss_changes":[5.087067E3,1.4129049E3,1.06933594E-1,3.2496973E2,2.3930767E3,0E0,0E0,2.0956836E2,5.1029495E1,4.3642822E1,1.2209916E3,1.7000342E2,5.956276E0,0E0,0E0,2.0427246E0,3.7056618E1,8.332092E0,1.00277637E3,3.680438E2,1.239021E2,0E0,6.979294E-1,6.5686035E-1,1.7714722E1,2.3331406E1,1.3112495E1,4.982559E0,1.2906616E1,2.572306E2,3.3762476E2,4.3815765E1,4.2278404E1,4.401465E1,5.95958E1,2.9652405E-1,0E0,6.002197E-1,1.8268127E0,6.4105425E0,1.5625E0,2.6576805E-1,5.475835E0,2.5700378E0,0E0,1.0966318E1,0E0,5.7461375E-1,1.1862183E0,2.0682268E1,3.3344116E0,1.6393555E2,9.59012E1,6.9119873E0,5.833292E-1,1.7198181E-1,1.4657852E1,3.5783936E1,1.0111778E1,9.953164E1,2.5052128E1,0E0,0E0,0E0,1.9284668E0,1.0705414E0,0E0,6.4491496E0,0E0,0E0,4.48186E0,0E0,0E0,4.2288017E-1,2.5934553E0,0E0,0E0,0E0,0E0,0E0,0E0,0E0,6.17986E0,0E0,0E0,5.7250977E-2,0E0,3.9958972E2,9.970068E1,1.822387E1,2.6356354E0,2.819214E-1,4.9647675E0,0E0,0E0,0E0,0E0,7.993469E-1,1.6178982E1,3.6883472E2,1.1869214E2,0E0,3.9773884E0,7.1498566E0,0E0,1.555958E1,1.4511124E1,0E0,9.3722534E-1,0E0,5.4034424E-1,2.1659446E-1,4.442863E0,0E0,0E0,0E0,4.5513394E-1,0E0,3.1193972E-2,0E0,0E0,0E0,6.0313034E-1,1.940918E0,3.1388351E1,4.797119E1,2.761591E1,0E0,0E0,6.589443E0,0E0,0E0,0E0,5.3881836E-1,3.598187E-1,0E0,1.4144897E-1,0E0,0E0,4.2893262E2,1.0643588E2,6.2424316E0,1.4740579E2,0E0,0E0,0E0,3.2780151E0,0E0,2.5009539E1,2.3817854E0,8.83852E0,0E0,1.2600136E0,0E0,0E0,0E0,0E0,0E0,0E0,0E0,0E0,0E0,1.7222064E0,0E0,0E0,0E0,0E0,8.375549E0,3.486738E1,7.946289E0,1.11879326E2,0E0,0E0,2.675758E0,0E0,0E0,0E0,0E0,0E0,0E0,0E0,0E0,0E0,0E0,0E0,0E0,0E0,0E0,0E0,0E0,0E0,0E0,0E0,0E0,0E0,0E0,0E0,0E0,0E0,0E0,0E0,0E0,0E0,0E0,0E0,0E0,0E0,0E0,0E0,0E0,0E0],"parents":[2147483647,0,0,1,1,2,2,3,3,4,4,7,7,8,8,9,9,10,10,11,11,12,12,15,15,16,16,17,17,18,18,19,19,20,20,22,22,23,23,24,24,25,25,26,26,27,27,28,28,29,29,30,30,31,31,32,32,33,33,34,34,35,35,37,37,38,38,39,39,40,40,41,41,42,42,43,43,45,45,47,47,48,48,49,49,50,50,51,51,52,52,53,53,54,54,55,55,56,56,57,57,58,58,59,59,60,60,64,64,65,65,67,67,70,70,73,73,74,74,82,82,85,85,87,87,88,88,89,89,90,90,91,91,92,92,97,97,98,98,99,99,100,100,102,102,103,103,105,105,106,106,108,108,110,110,111,111,112,112,116,116,118,118,122,122,123,123,124,124,125,125,126,126,129,129,133,133,134,134,136,136,139,139,140,140,141,141,142,142,146,146,148,148,149,149,150,150,152,152,162,162,167,167,168,168,169,169,170,170,173,173],"right_children":[2,4,6,8,10,-1,-1,12,14,16,18,20,22,-1,-1,24,26,28,30,32,34,-1,36,38,40,42,44,46,48,50,52,54,56,58,60,62,-1,64,66,68,70,72,74,76,-1,78,-1,80,82,84,86,88,90,92,94,96,98,100,102,104,106,-1,-1,-1,108,110,-1,112,-1,-1,114,-1,-1,116,118,-1,-1,-1,-1,-1,-1,-1,120,-1,-1,122,-1,124,126,128,130,132,134,-1,-1,-1,-1,136,138,140,142,-1,144,146,-1,148,150,-1,152,-1,154,156,158,-1,-1,-1,160,-1,162,-1,-1,-1,164,166,168,170,172,-1,-1,174,-1,-1,-1,176,178,-1,180,-1,-1,182,184,186,188,-1,-1,-1,190,-1,192,194,196,-1,198,-1,-1,-1,-1,-1,-1,-1,-1,-1,200,-1,-1,-1,-1,202,204,206,208,-1,-1,210,-1,-1,-1,-1,-1,-1,-1,-1,-1,-1,-1,-1,-1,-1,-1,-1,-1,-1,-1,-1,-1,-1,-1,-1,-1,-1,-1,-1,-1,-1,-1,-1,-1,-1,-1,-1,-1],"split_conditions":[3.9387977E-1,-4.005659E-1,-4.0203136E-1,3.473014E0,-2.1925256E-1,9.642848E-2,2.9646975E-1,3.2010671E-1,1.456756E-1,-9.1657355E-2,-4.199974E-1,1.3373216E-3,-4.031735E-1,2.9589474E-1,-1.5809177E-1,-3.7485185E-1,-2.1930629E-1,-3.7485185E-1,-3.7485185E-1,-2.1781053E-1,-6.8001404E-2,-1.2639855E-1,7.4393207E-1,1.456756E-1,-3.6905715E-1,-3.7485185E-1,1.2633243E-2,-3.9665446E-1,-3.6905715E-1,-4.6732172E-1,3.4971015E0,-3.4743196E-1,1.3224292E-3,-2.0590138E-1,2.3812903E-3,2.44959E0,2.8338319E-2,-2.1930417E-1,3.011082E0,-3.6934265E-1,-1.636201E-1,-4.679928E-1,6.390777E-1,-2.1925476E-1,-1.3096471E-1,-4.1644198E-1,4.050127E-1,-3.9714333E-1,-3.394082E-1,-3.1489156E-2,-7.8377336E-2,-3.4743676E-1,-4.6732172E-1,-3.9717883E-1,-2.7769247E-1,-6.803303E-2,-1.5669118E-1,1.3538689E-3,1.3422858E-3,7.9023486E-1,1.7087787E-1,3.12888E-1,8.5951366E-2,2.963062E-1,-7.8377336E-2,-1.6594766E-1,2.974809E-1,-3.0931784E-2,2.8130674E-1,2.9813454E-1,-3.1524938E-2,9.62323E-2,3.2540056E-1,-1.3035505E-1,-4.679928E-1,3.0561793E-1,1.1253012E-2,3.9534822E-1,-1.3831794E-1,-1.4047039E-1,5.7678238E-2,3.0026895E-1,1.9657908E-1,4.0576273E-1,-1.6105822E-1,-6.794479E-2,3.089803E-1,-4.610915E-1,6.504174E-2,-3.1385597E-2,3.6203117E0,-1.8084238E-1,-2.1870953E-1,-1.5686849E-1,3.8629908E-2,3.093735E-1,9.3603946E-2,-4.020331E-1,-4.6430188E-1,-4.6991017E-1,-2.192144E-1,-1.439277E-1,2.0258899E0,-3.95224E-1,-1.6320522E-1,-4.031735E-1,-4.583055E-1,4.0513936E-1,-6.7916155E-2,2.9546076E-1,-4.611455E-2,-1.7524764E-2,-4.5876554E-1,-1.2457479E-1,2.9634377E-1,-1.5439862E-1,-6.804264E-2,-1.1667778E-1,3.272629E0,-1.2995815E-1,2.8684095E-1,3.8999847E-1,-4.0039143E-1,-4.6430188E-1,-4.0203103E-1,2.0089474E0,-3.6905715E-1,2.7313718E-1,-1.6195989E-1,-4.968336E-1,2.9617852E-1,1.18922025E-1,4.0712208E-1,-1.0047012E-2,-4.0110186E-1,5.2654292E-2,-4.6128204E-1,4.5995042E-1,-1.5989044E-1,-4.1624025E-1,-9.898001E-2,1.0112157E-1,4.580922E-1,3.757002E-1,-9.829908E-2,-1.2130106E-1,-4.5656314E-1,-1.5943107E-1,1.1156099E-1,-4.1208338E-2,-3.2874368E-2,3.060893E-1,-6.76636E-2,4.217487E-1,3.2286888E-1,-1.439689E-1,-3.032601E-2,-1.1014608E-1,3.197824E-1,3.2601405E-2,-1.1639337E-1,2.7436572E-1,3.3818593E0,1.4574313E-2,2.702261E-1,4.0742722E-1,3.046216E-1,-2.9234967E-1,-3.035629E-2,-3.7448508E-1,-4.1644815E-1,-1.4121337E-1,3.2749978E-1,3.6803875E-2,2.9611853E-1,3.029266E-1,9.620379E-2,-1.1967564E-1,5.069444E-2,-1.6396275E-1,-9.739093E-2,-1.8970143E-2,8.9834267E-1,-1.6373353E-1,2.9628822E-1,-1.6020377E-1,-1.2551697E-1,2.8856227E-1,-1.6357733E-1,4.6955067E-1,3.1760123E-1,1.9196737E-1,-1.347092E-1,4.622752E-1,1.0994886E-2,-1.486716E-1,1.7065813E-1,4.8296773E-1,3.0053946E-1,-9.649554E-2,2.6476252E-1,3.415489E-1,-1.2121279E-1,-1.1518469E-1,6.506447E-2,-1.6279194E-1,2.6463147E-2,-1.5196368E-1,2.9514194E-1,7.397809E-2,3.392418E-1],"split_indices":[15,0,23,38,27,0,0,9,23,15,4,16,0,0,0,0,27,0,0,27,37,0,17,23,0,0,3,0,0,1,0,17,16,15,29,1,0,27,35,4,10,1,0,27,0,25,0,26,30,5,3,17,1,26,23,37,13,16,16,1,8,0,0,0,3,11,0,5,0,0,5,0,0,1,1,0,0,0,0,0,0,0,0,0,0,37,0,2,33,5,0,31,27,0,0,0,0,23,1,1,27,0,1,19,0,0,36,0,37,0,20,34,1,0,0,0,37,0,0,0,0,0,23,1,23,0,0,0,0,36,0,0,0,34,23,0,1,0,0,25,9,40,17,0,0,0,35,0,2,1,34,0,37,0,0,0,0,0,0,0,0,0,0,0,0,0,0,0,0,19,25,0,0,5,0,0,0,0,0,0,0,0,0,0,0,0,0,0,0,0,0,0,0,0,0,0,0,0,0,0,0,0,0,0,0,0,0,0,0,0,0],"split_type":[0,0,0,0,0,0,0,0,0,0,0,0,0,0,0,0,0,0,0,0,0,0,0,0,0,0,0,0,0,0,0,0,0,0,0,0,0,0,0,0,0,0,0,0,0,0,0,0,0,0,0,0,0,0,0,0,0,0,0,0,0,0,0,0,0,0,0,0,0,0,0,0,0,0,0,0,0,0,0,0,0,0,0,0,0,0,0,0,0,0,0,0,0,0,0,0,0,0,0,0,0,0,0,0,0,0,0,0,0,0,0,0,0,0,0,0,0,0,0,0,0,0,0,0,0,0,0,0,0,0,0,0,0,0,0,0,0,0,0,0,0,0,0,0,0,0,0,0,0,0,0,0,0,0,0,0,0,0,0,0,0,0,0,0,0,0,0,0,0,0,0,0,0,0,0,0,0,0,0,0,0,0,0,0,0,0,0,0,0,0,0,0,0,0,0,0,0,0,0,0,0,0,0,0,0,0,0,0,0,0,0],"sum_hessian":[2.8600908E4,2.4003498E4,4.597411E3,1.2562386E4,1.1441111E4,1.4375395E0,4.5959736E3,1.2343879E4,2.1850743E2,2.4386128E3,9.002499E3,1.223921E4,1.04668465E2,1.9398048E2,2.4526934E1,2.2742808E3,1.6433214E2,8.102259E2,8.192272E3,7.6094727E2,1.1478263E4,2.4117253E0,1.0225674E2,1.4125254E3,8.617554E2,7.162845E1,9.270369E1,1.2230362E2,6.8792224E2,7.951681E2,7.3971045E3,2.514882E2,5.0945908E2,1.0997011E4,4.812525E2,1.0124921E2,1.0075362E0,1.1788612E3,2.3366412E2,3.1424017E1,8.3033136E2,1.4351957E1,5.7276493E1,8.626984E1,6.433852E0,1.268748E1,1.09616135E2,6.731389E0,6.8119086E2,1.3381923E2,6.613489E2,7.069853E3,3.2725183E2,2.3385399E2,1.7634209E1,1.8464186E1,4.9099487E2,1.0972912E4,2.4098133E1,1.4973338E2,3.315191E2,9.981926E1,1.4299427E0,6.778729E2,5.009883E2,1.2119243E2,1.1247169E2,2.3490988E1,7.933028E0,8.22565E2,7.7663426E0,1.5556386E0,1.2796319E1,4.9510254E1,7.7662373E0,8.3432785E1,2.837054E0,7.5280995E0,5.159381E0,5.6778073E0,1.0535817E0,6.6526556E2,1.5925315E1,5.127616E0,1.286916E2,8.08784E1,5.8047046E2,1.6547266E3,5.4151265E3,7.645812E1,2.5079372E2,9.829433E1,1.3555968E2,1.6525095E1,1.109112E0,1.7023853E1,1.4403316E0,4.7759982E2,1.3395064E1,2.0225981E3,8.950314E3,4.158887E0,1.9939245E1,9.7471725E1,5.226165E1,1.26739006E2,2.0478012E2,3.300634E1,4.6798196E2,3.4708057E1,8.6484375E1,1.5314812E1,8.176177E0,3.0477266E0,4.718616E0,4.3571476E1,5.938778E0,2.3243253E0,5.4419117E0,3.5617108E0,1.2363605E1,7.683367E1,4.044733E0,1.7315114E2,1.4815754E3,5.352403E3,6.2723595E1,8.998809E0,6.745931E1,7.330417E1,1.7748955E2,1.309103E0,9.698522E1,1.3243274E2,3.1269326E0,1.1215038E0,4.764783E2,6.397801E0,6.997264E0,2.141426E2,1.8084556E3,8.691571E3,2.5874286E2,1.8604116E1,1.3351283E0,2.4127827E0,9.5058945E1,2.5485315E1,1.01253685E2,4.7557464E0,2.0002437E2,4.3773294E2,3.024903E1,5.559585E1,3.0888525E1,1.2923974E1,2.3908374E0,2.6147685E0,5.561408E0,2.6029727E0,3.3358052E0,2.3132432E0,3.1286688E0,1.2124314E0,2.8323014E0,1.3467561E2,3.847553E1,1.0960448E3,3.8553058E2,5.104695E3,2.4770805E2,1.4020072E1,4.870352E1,3.1338251E1,4.1965916E1,1.3012521E2,2.3075302E0,2.079459E0,1.0474737E0,4.6844913E2,8.029188E0,1.4885202E2,6.529057E1,1.7628822E3,4.5573357E1,8.1738994E3,5.176717E2,1.20835655E2,1.3790721E2,2.351596E1,7.1542984E1,7.249427E1,2.8759418E1,3.2957842E0,1.4599622E0,1.9269946E2,7.3249106E0,1.1814185E1,1.8434845E1,1.3894842E0,1.7391846E0,2.5987468E0,1.093446E3,1.8227756E2,2.0325302E2,5.08491E3,1.9784666E1,1.7871602E2,6.899205E1,2.8247658E1,3.0905948E0],"tree_param":{"num_deleted":"0","num_feature":"41","num_nodes":"211","size_leaf_vector":"1"}},{"base_weights":[1.4123236E-2,-3.5437652E-1,9.7069883E-1,6.8595773E-1,-5.190374E-1,9.858869E-1,-1.5338257E-1,8.821696E-1,-1.6341305E-1,-5.399098E-1,-4.2498207E-1,9.874352E-1,-1.4680162E-1,-1.6214365E-1,9.283688E-1,-5.4179513E-1,-2.1212083E-1,9.2221117E-1,-5.4077595E-1,1.6433781E-1,9.886709E-1,-4.2871028E-1,9.5369893E-1,-5.420503E-1,2.1426572E-1,5.881322E-1,-5.253673E-1,9.94637E-1,-1.5336046E-1,-5.43581E-1,-7.609157E-2,2.5766435E-1,-1.4404841E-1,